#ifndef RecoTracker_LSTCore_src_alpaka_pLSEmbedNetworkWeights_h
#define RecoTracker_LSTCore_src_alpaka_pLSEmbedNetworkWeights_h

#include <alpaka/alpaka.hpp>

#include "FWCore/Utilities/interface/HostDeviceConstant.h"

namespace ALPAKA_ACCELERATOR_NAMESPACE::lst::dnn::plsembdnn {

// PLS embedding model weights and biases:
HOST_DEVICE_CONSTANT float bias_fc1[32] = {
-0.5904493f, 0.2017650f, -0.5871461f, -0.4297789f, 0.0737636f, -0.7956514f, -0.4142782f, 0.6345044f, -0.3473809f, 0.0488527f, -0.0470646f, -0.4097641f, -0.0540161f, -0.5988382f, 0.0710623f, -0.3216703f, 0.0290160f, -1.2154720f, 0.2899027f, -1.1365402f, -0.0313410f, 0.2376598f, 0.5979906f, 0.2009044f, -0.4523480f, -0.3363750f, -0.0746834f, 0.6140215f, 0.1289385f, 0.1573371f, 0.6826662f, 0.0068843f };

HOST_DEVICE_CONSTANT const float wgtT_fc1[10][32] = {
{ -0.0036448f, -0.1611370f, -0.0075542f, -0.0050334f, 0.0006766f, -0.0136222f, -0.0075228f, 0.3200653f, 0.0178463f, -0.0166574f, 0.0053417f, 0.0011932f, -0.0434275f, -0.0304768f, 0.2873713f, 1.9435253f, 3.1060374f, -0.0316312f, -0.0107271f, -0.0083419f, 0.0085677f, 0.0808869f, -0.0183059f, 0.0099266f, 0.1666652f, -0.0593899f, -3.2813144f, -0.0965498f, 0.0016775f, -0.0098127f, 0.0700405f, -0.0009268f },
{ 0.0077886f, -2.3172133f, -0.0265980f, -0.0141489f, -0.0208658f, -0.0270817f, -0.0466664f, -0.0016404f, 0.4217966f, 0.1225155f, 0.0108942f, 0.0001159f, 1.3599217f, 0.3549861f, -0.2392122f, 0.1524692f, -0.0197731f, 1.2019159f, -0.5373526f, -0.0040576f, 0.1805680f, 0.6193319f, -0.0261849f, -0.0311077f, 1.3990206f, -0.8933541f, 0.0204161f, 0.4298608f, -0.0466812f, 0.0023451f, -0.4086107f, -0.0923163f },
{ -0.0964589f, 0.0307342f, 0.8796964f, -0.0481466f, -0.3487311f, -0.2406497f, -1.6262370f, -0.1496513f, -0.0482638f, -0.2573045f, -1.2297142f, 0.1127886f, 0.0052798f, -0.0371057f, 0.1327907f, 0.0237423f, -0.0023321f, 0.0160495f, -0.0482566f, 0.9131195f, -0.0608096f, 0.0073352f, 0.2967822f, 1.4888853f, 0.1349505f, 0.0426123f, 0.0009265f, 0.3444110f, 0.3316025f, 0.1509089f, -0.3279825f, -1.4865953f },
{ 1.7286402f, 0.4190773f, 1.8208090f, -0.0144465f, 0.3045036f, -1.5515089f, 1.4849136f, -0.1542642f, -0.1507666f, 0.0044679f, -0.2998722f, -1.1013582f, 0.2509285f, 0.0113553f, -0.1782563f, -0.0062000f, -0.0017376f, -0.0137006f, -0.0213218f, -1.9485725f, 0.0232532f, 0.0542358f, 0.2024238f, -1.5471976f, -0.0009597f, -0.0364600f, -0.0028973f, 0.2254517f, 0.5885549f, -0.2491372f, 0.0709568f, -2.0372732f },
{ -0.1122739f, -1.8958675f, -0.2585188f, -1.1613426f, -0.0693097f, -0.1208833f, -0.1202059f, -0.5577994f, 0.1392825f, 0.9284824f, -0.1060330f, 0.0491439f, 0.6944860f, -1.3852775f, -0.2444937f, -0.3649027f, 0.0306320f, -1.5745494f, -0.5335217f, -0.1250463f, -0.0568524f, 0.8055634f, -0.1245032f, -0.3242671f, -7.2178874f, 0.5755808f, -0.0597120f, 0.6645728f, -0.0199458f, 0.9568831f, 0.9697812f, -0.3493223f },
{ 0.0010985f, 0.7662890f, 0.0587482f, -0.3703139f, 0.0078581f, 0.0100124f, 0.0261500f, -0.1404041f, -0.4644785f, 0.0541385f, 0.0238830f, -0.0241368f, 0.4342170f, 0.2143824f, -0.0139252f, -0.1511995f, 0.0080309f, -0.7344321f, 0.0058577f, 0.0133459f, 0.2973572f, 0.3629433f, -0.0813275f, 0.0509577f, 0.6322892f, -0.6409590f, -0.0316800f, -0.1912145f, 0.0118045f, 0.0984900f, 0.0990977f, 0.0852873f },
{ -0.0020475f, 0.7780081f, -0.0098209f, 0.2032257f, 0.0051037f, 0.0073257f, -0.0022644f, 0.0032088f, 0.0029992f, -0.1790570f, -0.0033406f, 0.0252456f, -2.8512793f, -0.0716470f, -0.1814030f, -0.0327085f, -0.0005045f, 0.1909505f, 0.1286754f, 0.0074197f, 0.1797215f, 0.0896653f, -0.0071424f, 0.0101086f, -0.2205830f, -0.1880129f, -0.0077148f, -0.1252993f, 0.0030254f, 0.1600672f, 0.4381151f, -0.0379662f },
{ -1.0385011f, -0.0412388f, 0.8904827f, -0.0090988f, -0.9623802f, -1.0689800f, 0.7323124f, 0.1020912f, -0.0155975f, -0.0737779f, 0.6518896f, -0.5223337f, 0.0251861f, 0.0128153f, -0.2723500f, 0.0380209f, 0.0061682f, 0.0308270f, -0.0462113f, -0.7151453f, 0.0197249f, -0.0295634f, 0.8096482f, 0.4783163f, 0.2371226f, -0.0301835f, 0.0142711f, 0.0206940f, -0.6256922f, 0.2210946f, -0.0535058f, 0.0578871f },
{ 0.7773430f, 0.1062740f, -0.1037482f, -0.0284243f, 0.2917999f, 0.7250190f, -0.5333726f, 0.2301422f, -0.0984561f, 0.0954413f, -0.8118311f, 1.1998602f, 0.2112827f, 0.0119037f, -0.2955264f, 0.0630665f, -0.0026579f, -0.0568012f, -0.2938544f, 0.3393089f, -0.1567990f, 0.0507280f, -0.9882860f, -0.5340855f, -0.0468042f, 0.0487354f, 0.0120795f, -0.2724657f, 0.6238125f, -0.0580568f, 0.2526947f, -0.3724318f },
{ 0.1434419f, 0.3611601f, -0.9992530f, 0.1953268f, 0.6612803f, 0.1837267f, -0.3952313f, 0.2231197f, -0.6385189f, 0.0098204f, 0.0685896f, -0.5176369f, -0.3312176f, 0.6509930f, -0.2116665f, -0.0957105f, -0.0223752f, -0.2475124f, 0.4952309f, 0.1928735f, -0.2051781f, -0.1961843f, -0.4229790f, -0.3307382f, 0.1145391f, -0.3700233f, -0.0374024f, 0.2441596f, 0.0505829f, -0.1700033f, -0.3551978f, -0.0128030f },
};

HOST_DEVICE_CONSTANT float bias_fc2[32] = {
0.9156798f, -0.0260555f, 0.2111630f, 0.2167248f, 0.8357574f, -0.1952395f, -0.0885175f, 1.0173929f, -0.0636863f, -0.2125839f, 0.2117587f, -0.1074580f, 0.0361887f, -0.1786045f, -0.1006325f, 0.1882386f, 0.0179942f, -0.1763092f, 0.5831484f, 0.3920656f, -0.2490447f, -0.1542017f, -0.1293246f, -0.5403594f, -0.1308866f, -0.2081998f, -0.4012441f, -0.0417526f, 0.3641048f, -0.1023144f, 0.9972543f, -0.4538489f };

HOST_DEVICE_CONSTANT const float wgtT_fc2[32][32] = {
{ -0.0136571f, 0.0324448f, -0.0757158f, 0.4535884f, 0.1640059f, 0.1044460f, -1.4178075f, 0.0601117f, 0.0542117f, 0.0353757f, 0.0382940f, 0.1003416f, 0.0185470f, 0.0361514f, 0.8088517f, 0.6266153f, -0.1429510f, 0.0031116f, 0.3061461f, -0.0754616f, -0.1820249f, -0.2921711f, -0.0433994f, -0.8908768f, -0.1760379f, 0.2296794f, 1.1249734f, -2.3955388f, -3.9977858f, 0.0952159f, 0.0699611f, -1.6756567f },
{ 0.1999646f, -0.0814025f, 0.3260683f, -0.0648917f, -0.0345753f, -0.0399706f, -0.0147585f, 0.3441457f, -0.1070650f, -0.2824411f, 0.1563696f, -0.1582728f, 0.0959472f, -0.2937733f, -0.1003097f, 0.0762935f, -0.0674101f, 0.0458658f, 0.4920802f, -1.9613196f, -0.1718053f, 0.0105968f, -0.1832167f, -0.8300908f, 0.8459483f, 0.0699446f, -3.0558143f, -0.4990638f, -0.1892700f, -0.0533966f, -0.0476523f, 0.4831619f },
{ 0.0918785f, 0.0336488f, -0.0778947f, 0.1791510f, 0.2080840f, 0.0562078f, -2.6293504f, 0.0043059f, -0.0278710f, -0.1905672f, 0.0607203f, 0.1090923f, -0.1127746f, 0.0719543f, -1.2089320f, 0.0126775f, -0.0292136f, 0.0029777f, 0.5074821f, -0.1185002f, -0.1590475f, -0.2569396f, -0.0820545f, 0.5645189f, 0.7542593f, 0.2316921f, -0.4822355f, -1.5321314f, 1.8951982f, -0.0309512f, 0.2528889f, 0.1564777f },
{ -0.1664932f, 0.1130508f, -0.6415516f, -0.1173426f, -0.0142947f, 0.1568190f, -0.0851326f, 0.0663008f, -0.3274758f, -0.0666834f, 0.2200702f, 0.0891538f, 0.0723858f, 0.0921216f, -0.0136227f, -0.0466470f, -0.0203043f, -0.0392102f, -0.1868502f, -0.3174948f, -0.0348849f, -0.0993438f, -0.0878945f, -0.1939610f, 0.4815861f, -0.1461721f, -0.7232848f, -0.0226051f, -0.0276086f, -0.0519512f, -0.0196971f, 0.3544441f },
{ -0.0670953f, -0.1333141f, 0.0193520f, 0.7334448f, 0.1533123f, -0.1354554f, 0.4329606f, 0.1725900f, -0.2710486f, -0.2339355f, -0.0279451f, -0.1679775f, 0.0594755f, 0.0056042f, 1.1848621f, 0.1502905f, -0.1160596f, 0.0945039f, 0.4168184f, 0.1448741f, -0.0561428f, -0.3328050f, -0.2182231f, 0.0508080f, 0.3070631f, 0.0254301f, -0.5112861f, 0.9935369f, -0.4008614f, -0.2142172f, 0.0373068f, 0.4122910f },
{ 0.2957007f, -0.0765627f, -0.3609988f, 0.8776531f, 0.0313461f, 0.1449223f, 0.6024204f, -0.1978991f, -0.1942696f, -0.1139084f, -0.2461483f, 0.0424402f, -0.0750252f, -0.0245111f, -1.0470922f, 0.6560065f, -0.1519699f, -0.0325607f, 1.5271354f, -0.0285187f, 0.0359217f, -0.1524363f, -0.0742320f, 0.1327894f, -0.4917553f, 0.4065799f, 0.1714125f, 1.5455253f, -4.8251853f, -0.0599770f, 0.0656438f, 0.2198742f },
{ -0.0315938f, 0.0825141f, 0.1326063f, -0.8839281f, 0.0658853f, -0.1168299f, 1.4330659f, 0.0924857f, -0.1481901f, -0.1090530f, 0.0067160f, -0.0918199f, -0.0720068f, -0.1671801f, 1.1119380f, -0.0938135f, -0.1805732f, -0.0000883f, -0.4362234f, -0.0276633f, 0.1593773f, -0.1761819f, -0.0224352f, 1.3751612f, 0.3142042f, 0.1812167f, 0.4192656f, 1.3633718f, -2.1106658f, 0.0931303f, -0.0538124f, -0.1397083f },
{ 0.2870732f, -0.0383849f, -0.0096463f, -0.1194450f, 0.3139518f, -0.1934256f, 0.0236718f, 0.3659075f, -0.2774012f, -0.0984885f, 1.0798687f, -0.1053222f, -0.2304602f, -0.1982133f, -0.1414567f, 0.3308256f, 0.0642361f, -0.2897860f, 0.1358681f, 0.2028095f, -0.0202372f, -0.0138005f, -0.0470747f, 0.3271601f, 0.2130203f, 0.8973109f, 0.0045934f, -0.5084084f, 0.2697622f, 0.0407323f, 0.1099223f, 0.7340674f },
{ -0.1489300f, -0.0756565f, -0.2111121f, -0.0268563f, 0.0909921f, -0.1477297f, -0.0452052f, 0.0409316f, 0.0258707f, -0.1208701f, -0.5624953f, -0.0391353f, -0.1615922f, 0.1371170f, -0.2837973f, 0.1700076f, -0.0925805f, -0.0067258f, 0.2071596f, 0.2122723f, -0.1422927f, -0.1823990f, 0.0334812f, 0.3681926f, -0.0190193f, 0.3687873f, -3.5297360f, 0.2285153f, -0.4769809f, 0.0496383f, -0.1347216f, -0.0091835f },
{ 0.0670016f, 0.0761220f, 0.3573803f, -0.0980860f, 0.0821672f, -0.0198237f, -0.1952547f, 0.1066651f, -0.1976762f, -0.0851328f, -0.4992768f, -0.0641815f, -0.1284206f, -0.2391384f, 0.3469181f, 0.4271764f, -0.3193021f, -0.1430818f, 0.0171456f, 0.0361396f, -0.2057754f, -0.0453057f, -0.2114382f, -0.1476002f, 0.2610922f, -0.4051911f, -0.3403509f, -0.5413525f, 0.2753504f, -0.0660123f, 0.3929003f, -0.6372654f },
{ 0.2205239f, -0.1434106f, -0.1804250f, -0.8505391f, 0.0946587f, -0.2043636f, -0.3751577f, -0.1505434f, -0.1959420f, -0.0005810f, -0.0322857f, -0.0475320f, -0.0882563f, -0.0469174f, -2.0203903f, 0.1814746f, -0.1226307f, 0.0042005f, -0.4333114f, 0.0761336f, 0.0374541f, -0.1939247f, 0.0651962f, 0.7025574f, 0.0668234f, -0.2826366f, 1.2168822f, -0.2875147f, -0.0060465f, -0.1750208f, 0.0746521f, -0.4242212f },
{ -0.0313146f, -0.0667968f, 0.0152306f, -1.3337574f, 0.2029075f, -0.1373161f, 0.8447066f, 0.0699915f, -0.0098710f, -0.0137745f, -0.0008331f, -0.1584000f, -0.0674284f, -0.1620226f, -0.0617673f, 0.1642573f, -0.0623443f, 0.0062345f, -0.9225885f, 0.0396500f, -0.0051046f, -0.1506727f, -0.1127070f, -0.0285219f, 0.2892387f, -0.1051391f, 0.2128040f, 0.2175250f, -0.4157473f, -0.1795584f, 0.0412984f, 0.1878495f },
{ 0.1102702f, 0.0634863f, 0.2607619f, 0.0096952f, 0.0721677f, -0.0888631f, 0.0164887f, 0.0836032f, -0.1798756f, 0.1084133f, 0.1221531f, 0.0542488f, -0.0907932f, -0.0589868f, -0.0093248f, 0.1150059f, 0.0694325f, 0.0574434f, 0.1271530f, 0.1454174f, 0.0796207f, -0.0269491f, -0.1010376f, -2.3818533f, 0.0892026f, -5.0305176f, -1.8898808f, -0.0112512f, 0.0117813f, 0.0950565f, -0.0607419f, -4.0505056f },
{ 0.0672100f, 0.0110482f, -0.4088166f, -0.0118969f, 0.1955744f, -0.0233739f, -0.1733581f, 0.1773140f, -0.2008122f, -0.1148316f, -0.3590730f, 0.1338020f, -0.2454717f, -0.0792953f, 0.0496852f, 0.2003497f, -0.0913894f, 0.0925043f, 0.0433135f, -0.0000845f, -0.0757152f, 0.0563241f, -0.1896545f, 0.8930244f, 1.3497328f, 0.9478175f, 1.1699080f, 0.0382060f, -0.0509386f, -0.2359816f, 0.4058008f, 0.8078282f },
{ 0.1082773f, -0.1143418f, -0.0060834f, 0.0308474f, 0.0626298f, -0.1735525f, -0.0396384f, 0.0929673f, 0.0886436f, -0.0789343f, -0.1214138f, -0.0391705f, -0.0971710f, -0.1346456f, 0.0688622f, -0.0586575f, 0.1112037f, -0.0296722f, -0.0244878f, -0.0706239f, -0.0215578f, -0.0476437f, 0.0449964f, -0.0891689f, 0.0914606f, -0.1585557f, 0.0489456f, -0.1250189f, 0.1144389f, 0.0418509f, 0.1723356f, -0.0239139f },
{ -0.4339998f, -0.0120412f, -0.0750905f, -0.1084275f, -0.1365093f, -0.0810418f, -0.0470928f, -0.2261506f, -0.2815593f, -0.0418992f, -0.7788131f, -0.1191075f, 0.1015929f, -0.1684340f, -0.0277254f, 0.2997805f, -0.0866418f, 0.8815286f, 0.2326385f, -0.4698715f, -0.0498129f, 0.0013378f, 0.0053534f, -0.6877822f, 0.2419046f, -0.0292064f, 1.2102625f, -0.0190374f, -0.2024288f, -0.0953836f, -0.1718436f, -0.5979003f },
{ -0.9881148f, -0.1927028f, 0.7705786f, 0.0721547f, -1.2357785f, -0.0702774f, 0.0203381f, -1.4580343f, 0.0226488f, -0.0848405f, -1.1267945f, -0.0512501f, -0.2201333f, 0.0641788f, -0.0732088f, 1.2352861f, -0.0294244f, 1.2760303f, -0.3076432f, -1.3691852f, -0.1967099f, -0.0936708f, -0.0822816f, -0.4974409f, 1.1053922f, -1.4549485f, -0.1922433f, 0.1392204f, -0.0104508f, 0.0853429f, -1.0209444f, -0.6732118f },
{ -0.1178491f, -0.1540787f, -0.3327960f, 0.0626315f, -0.1348890f, -0.0557683f, -0.0134268f, -0.1028132f, 0.0280903f, 0.0230498f, -1.1187099f, -0.1960509f, 0.0015721f, -0.0247369f, 0.0280327f, 0.0893029f, -0.1032590f, -0.3418770f, -0.1352625f, -0.4275453f, 0.0954513f, -0.0499125f, -0.1194831f, 0.2762485f, -0.1947147f, -0.6399089f, 3.8871932f, 0.0196367f, 0.0079503f, 0.0252438f, -0.2043293f, 0.2693624f },
{ 0.2457210f, 0.0556409f, 0.1696225f, 0.2032240f, 0.0782951f, -0.0798367f, 0.0411494f, 0.1994530f, 0.0164269f, -0.0835276f, 0.3304347f, -0.1435525f, 0.0170227f, -0.0164886f, -0.0485249f, 0.2873777f, -0.0229940f, 0.0498243f, -0.0322188f, -0.0031181f, -0.0040005f, 0.0250017f, 0.0576850f, 0.2036022f, 0.3521806f, 0.3241279f, -0.9344778f, 0.1217285f, 0.0234949f, -0.1210420f, -0.2698959f, 0.3706183f },
{ 0.8582033f, -0.0471132f, -0.4522662f, 0.5020939f, -0.3051177f, 0.0633327f, -5.1419258f, -0.0247785f, 0.0493769f, -0.1368096f, 0.2182012f, -0.1013322f, 0.1325272f, -0.0130835f, -1.4457631f, 1.0933502f, 0.0339171f, -0.0058325f, 1.5514964f, 0.0898499f, -0.1030913f, 0.0261036f, -0.0526475f, 0.0423510f, -0.4956129f, -0.9215167f, 0.1136405f, -5.0575051f, 0.1577858f, -0.1466822f, -0.2690247f, -0.2447888f },
{ 0.0029874f, -0.0900425f, 0.0082174f, 0.1926182f, -0.1375637f, -0.1166291f, 0.0019456f, 0.1569577f, -0.0359654f, -0.1498734f, -0.1067492f, 0.1110696f, 0.0914722f, 0.1143538f, 0.1031468f, -0.1144574f, -0.0081341f, -0.1192130f, -0.0278557f, -0.1346952f, -0.0724927f, -0.0277746f, -0.1718501f, -0.1191733f, 0.0223202f, -0.0171542f, 0.1579326f, 0.1079331f, 0.1381102f, 0.0232214f, 0.1077793f, -0.0360571f },
{ -0.1630224f, -0.0453117f, 0.3171180f, -0.0640242f, 0.1072066f, -0.2201160f, -0.0979730f, 0.1749030f, -0.0919221f, 0.0336578f, -0.2772116f, -0.1354311f, -0.2834694f, -0.1550255f, 0.0313845f, 0.3767644f, 0.0717006f, -0.0784596f, 0.0281802f, -0.3506998f, -0.1441867f, -0.1461687f, -0.0625892f, -4.0890493f, 0.1790411f, -1.3385439f, -4.0884342f, -0.0801156f, 0.0345888f, -0.1993758f, 0.2775679f, 0.3689770f },
{ -0.1683205f, 0.0431990f, 0.1696139f, 0.8524101f, 0.1648216f, -0.0251314f, -0.2215170f, 0.1270756f, 0.0294928f, 0.0675077f, 0.1535635f, -0.0282106f, -0.0636375f, -0.1497429f, 1.2444513f, -0.0593382f, 0.1277385f, -0.0114106f, -0.7145943f, -0.1335744f, 0.0047566f, -0.0605722f, -0.0479617f, -0.6210793f, 0.4738529f, 0.2812374f, -1.3611637f, -0.4458203f, 1.2210640f, -0.0186441f, 0.1404698f, 0.3063912f },
{ -0.1614031f, -0.1098874f, -0.0097812f, 2.0177648f, 0.1724608f, -0.0955740f, 1.2257371f, 0.1347996f, 0.0532245f, 0.0559201f, 0.0439671f, -0.0917949f, -0.1812199f, 0.0220478f, -1.7122257f, 0.2618962f, -0.0945446f, -0.0258923f, 0.7879655f, -0.0299445f, -0.1408487f, -0.0016366f, -0.0754323f, 0.9106330f, 0.1835387f, 0.6586800f, -0.0933835f, 2.0855329f, 0.3176263f, 0.0442614f, 0.0641794f, -0.8611012f },
{ -0.0034866f, -0.1192117f, 0.3636851f, -0.0532799f, -0.3088537f, 0.1114282f, -0.4487809f, -0.0413967f, -0.0358136f, -0.0626267f, -0.3826130f, -0.1627741f, -0.0496936f, -0.0633414f, -0.6787971f, -0.4443926f, -0.0151887f, -0.1103305f, 0.4320264f, 0.9108143f, 0.0899126f, -0.0094352f, -0.0980576f, -1.7750468f, -0.1933826f, -1.2715765f, 0.5954527f, -0.6459718f, -0.2146415f, 0.0863250f, -0.3667817f, -0.3730959f },
{ -0.0047876f, -0.1712028f, -0.0266300f, 0.0113833f, -0.0932425f, -0.1208302f, -0.0184186f, 0.0519181f, -0.0701669f, -0.0006840f, -0.6426022f, -0.0822380f, 0.0058617f, -0.1742226f, -0.0920240f, 0.2720976f, -0.1688068f, -0.2070080f, 0.0368691f, -0.5306426f, -0.1454867f, -0.1514973f, -0.1434123f, -3.3850787f, 0.0634500f, -0.3882922f, -5.1816697f, 0.0834228f, -0.1412951f, -0.0478105f, 0.1514442f, 0.5646086f },
{ -1.1674006f, -0.0123663f, 0.7281197f, -0.0094694f, -1.2442185f, -0.0866669f, -0.0083422f, -1.4577274f, -0.1538639f, -0.1355928f, -1.2550131f, -0.0102974f, -0.1591506f, -0.1405617f, -0.1011908f, 1.3618355f, -0.0044081f, 1.6722084f, -0.1536798f, -1.5554429f, -0.1739691f, -0.1590347f, 0.0650310f, -1.1059068f, 1.1294549f, -1.2580122f, 0.7080003f, 0.0081529f, -0.0422572f, -0.1953400f, -1.0701586f, -0.9151365f },
{ 0.3291000f, -0.1721355f, 0.4230623f, 0.2704128f, 0.2686169f, 0.0018492f, 0.1421208f, 0.3882660f, -0.2654324f, -0.2043589f, 0.2823234f, -0.0721805f, -0.2439454f, -0.1331700f, -0.1779359f, 0.5052004f, -0.1300359f, -0.0520516f, -0.0820648f, 0.6760242f, -0.1910087f, -0.0432916f, -0.2570682f, -0.9648561f, 0.3843232f, -0.2036850f, 0.0756383f, 0.2138467f, -0.0853034f, -0.2289997f, 0.3432899f, -0.2923580f },
{ 0.1275666f, -0.0445413f, 0.0022081f, 0.2893336f, 0.2612086f, -0.1548102f, -0.8100505f, 0.1781625f, -0.1421114f, -0.2000624f, 0.1787310f, 0.0867864f, -0.1569546f, -0.1601711f, -0.5716494f, 0.5777087f, -0.0186731f, -0.0563028f, -0.3492482f, -0.0276934f, -0.0491186f, -0.1331759f, 0.0538246f, 0.1872744f, 0.4826529f, 0.5898832f, -0.1986099f, -0.4115310f, 0.0830553f, -0.2453079f, -0.0010479f, -0.3873945f },
{ 0.2176099f, -0.0974641f, 0.4730485f, -0.2989493f, 0.2098279f, 0.0651696f, 0.3163409f, 0.2538098f, -0.2400189f, 0.0005105f, -0.1923289f, 0.0708101f, -0.0323484f, -0.0641454f, -0.0965331f, 0.6058381f, -0.1127686f, 0.1757610f, 0.5125700f, 0.3392146f, -0.0750432f, -0.2026009f, -0.2218833f, 0.3299935f, 0.2002319f, 0.0011608f, -0.3815369f, 0.1117006f, -0.0031495f, -0.0564345f, 0.2910285f, 0.0856470f },
{ 0.2483101f, -0.1735713f, 0.4568295f, 0.1819620f, 0.2304477f, -0.0803229f, -0.1558992f, 0.2132160f, -0.3230049f, -0.1641209f, 0.0366086f, 0.0675975f, -0.0958678f, -0.3136490f, 0.0053967f, 0.4613168f, -0.1686455f, 0.1068370f, 0.0385339f, 0.3730754f, -0.0552890f, -0.1627572f, -0.1513698f, -0.7052272f, 0.3853424f, -0.1580234f, -5.6921926f, -0.2424130f, 0.0794245f, -0.1075932f, 0.1660537f, -0.6845866f },
{ 0.0000028f, -0.0564092f, 0.0922196f, -1.8516576f, 0.0567873f, -0.1196875f, 0.0513633f, 0.1800111f, 0.1675657f, 0.0773037f, 0.0718411f, 0.0692415f, 0.0532945f, 0.0397325f, -4.7918816f, 0.0447196f, -0.1474461f, 0.0371428f, -0.1033991f, 0.0459894f, 0.0806625f, -0.1986122f, -0.1037263f, -0.0969610f, 0.3387225f, -0.3431398f, -0.9127717f, -1.4099723f, -0.1042557f, -0.0709759f, -0.1121624f, 0.2009004f },
};

HOST_DEVICE_CONSTANT float bias_fc3[6] = {
0.0762957f, 0.1713885f, 0.4289473f, -0.1888883f, -0.0227394f, 0.3574817f };

HOST_DEVICE_CONSTANT const float wgtT_fc3[32][6] = {
{ 0.5186090f, -0.4888397f, 0.3451638f, 1.1659852f, 0.4864641f, -0.7674115f },
{ 0.0495439f, 0.0854433f, 0.1630412f, -0.0871212f, -0.1508631f, 0.0011761f },
{ -0.0077755f, 0.2857182f, 0.3006003f, -0.4016446f, -0.2339210f, 0.4792994f },
{ -0.1015016f, -0.4840483f, 0.2866755f, -0.7263463f, -0.2322827f, -0.3754230f },
{ 0.5947134f, -0.8342696f, 0.3428775f, 1.0268589f, 0.5739614f, -1.1575379f },
{ 0.0446896f, 0.1194595f, 0.1693980f, -0.0156523f, 0.1033051f, -0.0492906f },
{ -0.1182010f, -0.6133052f, 0.3868512f, -0.8995123f, -0.2943135f, -0.4764563f },
{ 0.6842129f, -1.0670049f, 0.6357886f, 1.3827018f, 0.6021636f, -1.4482391f },
{ -0.1290250f, 0.0209401f, 0.0030613f, -0.0839223f, -0.0295481f, 0.0625959f },
{ -0.1887274f, 0.0200611f, -0.0769340f, 0.1192524f, 0.0953218f, -0.1208614f },
{ -0.1536261f, -0.0546950f, -0.3724014f, -0.0413205f, 0.0447853f, -0.1223822f },
{ -0.0046699f, -0.0446888f, 0.1174403f, -0.1340163f, 0.0187034f, 0.1910337f },
{ -0.0744092f, 0.0138196f, 0.0549864f, 0.1077501f, -0.0646891f, 0.0170999f },
{ -0.0596617f, -0.0952666f, -0.1747348f, 0.0519107f, -0.1071474f, 0.0959050f },
{ 0.0719118f, 0.4109738f, -0.2804502f, 0.6250197f, 0.2048449f, 0.3109769f },
{ -0.2915320f, 0.6482476f, -0.2314854f, -0.5019087f, -0.2891388f, 0.8396446f },
{ -0.1251662f, 0.1466952f, -0.0467288f, 0.1099274f, 0.0643302f, 0.1089908f },
{ -0.4087303f, 0.6763214f, -0.1640601f, -0.9230329f, -0.4727075f, 0.9655018f },
{ 0.0434588f, 0.1732036f, -0.1125365f, 0.2653786f, 0.0930218f, 0.1312226f },
{ 0.1693243f, 0.1262412f, 0.4074361f, -0.0602291f, -0.0712339f, 0.2327708f },
{ 0.1159161f, 0.0160605f, 0.0441946f, -0.1772410f, 0.0240086f, 0.0297188f },
{ -0.0703956f, -0.1549709f, 0.0157219f, 0.0083236f, -0.1342680f, -0.1047319f },
{ 0.1391491f, 0.0177769f, -0.0098072f, -0.0841919f, 0.2111354f, 0.0130772f },
{ -0.2507339f, -0.0071602f, -0.4123891f, -0.0386323f, -0.0063072f, -0.0715699f },
{ -0.3585346f, 0.2897859f, -0.2285715f, -0.7904239f, -0.3307994f, 0.4717781f },
{ -0.1925086f, -0.0232873f, -0.3331681f, -0.0468709f, -0.0088623f, -0.0736669f },
{ 0.2748688f, 0.0848680f, 0.6677557f, 0.0655128f, -0.0721655f, 0.2162832f },
{ 0.1678562f, 0.6921272f, -0.3876265f, 1.0546544f, 0.3409439f, 0.5374035f },
{ 0.0771292f, 0.4410299f, -0.2857373f, 0.6427609f, 0.2089783f, 0.3417118f },
{ 0.0457139f, -0.0794413f, -0.0140288f, -0.0594597f, 0.1771141f, -0.0928207f },
{ 0.2997797f, -0.3110287f, 0.6359334f, 0.4351691f, 0.0642127f, -0.3460147f },
{ -0.1505545f, -0.0293391f, -0.1986455f, -0.0590993f, -0.0345712f, -0.0540831f },
};

}  // namespace ALPAKA_ACCELERATOR_NAMESPACE::lst::dnn::plsembdnn

#endif

