#ifndef RecoTracker_LSTCore_src_alpaka_pLSEmbedNetworkWeights_h
#define RecoTracker_LSTCore_src_alpaka_pLSEmbedNetworkWeights_h

#include <alpaka/alpaka.hpp>

#include "FWCore/Utilities/interface/HostDeviceConstant.h"

namespace ALPAKA_ACCELERATOR_NAMESPACE::lst::dnn::plsembdnn {

// Time: 2025-07-01 17:18:13
// PLS embedding model weights and biases:
HOST_DEVICE_CONSTANT float bias_fc1[32] = {
-0.8649753f, -0.1029706f, -0.9721324f, -0.6255735f, 0.3842557f, -0.3488596f, -0.4306218f, 0.1296853f, 0.4027258f, -0.2264332f, -0.5771295f, -0.3756489f, -1.1613623f, -0.8785353f, 0.0710623f, -0.1579969f, -0.7175152f, 0.2654942f, 0.3238541f, -1.3556165f, -0.0346870f, 0.1382769f, 0.8570042f, -0.0950006f, -0.1654108f, -0.3660960f, 0.0100906f, -0.1872501f, -0.0585006f, 0.2997816f, 0.5650419f, -0.4243445f };

HOST_DEVICE_CONSTANT const float wgtT_fc1[10][32] = {
{ -0.0459336f, 0.0174723f, 0.0061197f, 0.0184980f, 0.0025262f, 0.0070690f, 0.0134439f, -0.0016052f, 0.0053713f, -0.0147597f, 0.0104755f, -0.0018726f, -0.0431185f, -0.0073607f, 0.2873713f, 3.2523615f, 0.0995359f, -0.0061594f, -0.0055726f, 0.0160679f, 0.0386577f, 2.2083917f, 0.0856306f, -0.0120830f, -0.1489394f, -0.0169514f, -3.3924246f, 0.0092313f, 0.0150192f, -0.8600762f, 0.0057775f, 0.0038860f },
{ 0.5152114f, -0.0645085f, -0.0665998f, -0.0624740f, 0.0499572f, -0.0072552f, -0.0109513f, -0.0174811f, 0.0114351f, 0.2990777f, -0.0985861f, -0.0014064f, 0.5515746f, -0.0129031f, -0.2392122f, 0.0165362f, -0.9965655f, 0.0209919f, 0.0087282f, -0.0173290f, 0.1769596f, -0.0819176f, 0.0034115f, -0.0192687f, 0.1712211f, 0.1732337f, -0.0038110f, -0.2647013f, -0.0415093f, -0.0056507f, -0.1299576f, -0.0143137f },
{ -0.1018411f, 2.3386934f, 2.5591340f, -0.0404732f, 0.0684274f, -0.1345198f, -1.0264870f, -0.1136828f, -1.3438910f, -0.0147019f, -1.1727141f, -0.0219170f, 0.0132589f, -0.4510645f, 0.1327907f, -0.0076724f, 0.4999511f, -0.9051637f, 0.4669926f, 1.5450178f, -0.0396037f, -0.0047353f, -0.0863077f, 1.1773431f, 0.2037410f, 0.0554537f, -0.0056503f, 0.0770752f, 0.1050568f, -0.0215326f, -0.0230274f, 1.0916488f },
{ -0.0088965f, -1.3889960f, 1.0276231f, -0.0088769f, 0.7835649f, -1.5370222f, 1.0475129f, -0.8287632f, -1.3914161f, 0.0195044f, -0.0970545f, 0.1009993f, -0.0032543f, -0.1332577f, -0.1782563f, -0.0000088f, 0.5351048f, -0.0040885f, -0.5187887f, -2.3844986f, 0.0359509f, 0.0069473f, -0.6355840f, -1.6306825f, 0.0459439f, -0.0009863f, -0.0003894f, -0.1349006f, 1.8811227f, 0.0009876f, 0.0916759f, 0.2417610f },
{ -1.7256548f, -0.0628488f, 0.1658999f, -1.4508806f, 0.0002076f, -0.1733356f, -0.1356856f, -0.0470792f, -0.2592769f, 1.2261653f, -0.0644016f, 0.0699372f, -0.0769387f, -0.2199918f, -0.2444937f, -0.2162804f, -0.7486201f, -0.0767549f, -0.2540903f, -0.1327546f, -0.0656007f, 0.2637026f, -0.1345613f, -0.2569249f, -0.1186481f, 0.3003586f, -0.1957503f, 0.0086307f, 0.1999971f, 0.9842464f, 0.4874103f, 0.1692800f },
{ -0.6834087f, 0.0435369f, 0.0363622f, -0.5235819f, -0.0379332f, 0.0303069f, 0.0838677f, 0.0911385f, -0.0191816f, 0.2468934f, 0.1814512f, 0.0163353f, -0.9440773f, 0.0687845f, -0.0139252f, -0.1101719f, 0.0951658f, 0.0395978f, 0.0245751f, 0.0167860f, 0.3021960f, -0.1085293f, -0.5013333f, 0.0582694f, 0.3037338f, -0.6618581f, -0.0955916f, 0.7471741f, 0.0374906f, 0.0213037f, -0.3164128f, -0.0133441f },
{ -0.0026048f, -0.0532942f, -0.0148121f, -0.0783159f, 0.0111063f, -0.0030688f, -0.0269973f, 0.0244051f, 0.0168133f, -0.0636358f, -0.0136371f, 0.0133997f, -0.0638944f, -0.0161368f, -0.1814030f, -0.0073762f, 0.4101072f, 0.0170736f, 0.0401172f, -0.0157822f, 0.1431172f, -0.0128436f, -0.0651303f, -0.0094655f, 0.0624170f, -0.0298664f, -0.0077616f, -0.3756412f, -0.0753142f, -0.1796142f, 0.1555014f, -0.0312531f },
{ -0.0087431f, -0.0933667f, 0.3727248f, 0.0426922f, -0.3938852f, -0.8945692f, 0.9967238f, 0.5119881f, 0.0259183f, 0.0231989f, 0.8317840f, -0.7382746f, -0.0159772f, -1.7468828f, -0.2723500f, -0.0175303f, 0.0215297f, -0.5920072f, 0.3833741f, -0.4643275f, 0.0180019f, 0.0241250f, 0.3363851f, 0.4267103f, -0.1220628f, -0.0350925f, -0.0118701f, 0.1407334f, -0.8901904f, 0.0249174f, -0.0218977f, 1.0663748f },
{ -0.0103766f, -0.0212427f, -0.2053999f, 0.0124446f, 0.0042553f, 1.1184487f, -0.6212075f, -0.1002804f, -0.3315525f, 0.0667131f, -0.7725524f, 0.9685323f, -0.0197580f, 0.6844668f, -0.2955264f, -0.0279369f, 0.0240298f, 0.4242845f, -0.6443953f, 0.3063268f, -0.1585696f, 0.0164456f, -0.1107763f, 0.0981878f, -0.1096037f, -0.0953400f, -0.0206445f, 0.2302643f, 1.1557641f, 0.0103534f, -0.0820449f, -0.9538091f },
{ -0.1120753f, -0.3692434f, -0.2358408f, 0.3691380f, 0.5055834f, -0.3760948f, -0.5033213f, -0.0570771f, -0.1292093f, -0.0085560f, 0.1752216f, -0.0002743f, -0.8986612f, 0.8908792f, -0.2116665f, 0.0136680f, 0.5136685f, 0.3380203f, 0.3091272f, -0.1139483f, -0.2069011f, -0.0930680f, 0.0595093f, -0.6713495f, -0.0442564f, -0.5458703f, -0.0549501f, 0.1128229f, -0.4052643f, -0.0765127f, -0.2387156f, -0.1600495f },
};

HOST_DEVICE_CONSTANT float bias_fc2[32] = {
0.0080695f, -0.0139278f, 0.4083701f, -0.0921424f, 1.3068515f, -0.1817407f, 0.2673776f, 0.9054379f, -0.0096820f, 0.2084847f, 0.0639186f, -0.1231107f, 0.0281296f, -0.1280675f, -0.2280338f, 0.2840465f, -0.0449875f, 0.2088654f, 1.0429451f, -0.2379290f, 0.0613540f, 0.0359416f, -0.1295366f, 0.7348385f, 1.4768780f, 0.0520532f, -0.0192348f, -0.0081614f, 0.0557522f, -0.0825352f, 1.2536515f, -0.1095650f };

HOST_DEVICE_CONSTANT const float wgtT_fc2[32][32] = {
{ -0.0192625f, 0.0447560f, -0.6937301f, 0.0460276f, 0.1082800f, 0.0523380f, -0.0346671f, -0.5056151f, -0.0895974f, -6.7568913f, 0.2067361f, 0.0847106f, -0.0591179f, -1.4192376f, 0.0156520f, -0.4895361f, -0.3322377f, 0.1897764f, 0.0064039f, -0.0350565f, -0.0517212f, 0.0404311f, -0.0274602f, -2.2125511f, -0.6715273f, 0.1581404f, -0.1275747f, -0.0620300f, -0.1973359f, 0.0939881f, 0.2463211f, -1.5031927f },
{ 1.0029334f, -0.0674809f, 0.0605220f, 1.7870508f, -0.0163113f, -0.0965208f, -1.0879371f, 0.4347364f, 0.0493084f, 0.2431949f, -0.1105015f, -0.1735785f, 0.0959472f, -0.2669162f, -2.6575506f, 0.0618988f, -0.1746156f, 0.0118284f, 0.1354628f, 0.6963852f, 0.0204723f, 0.2716189f, -0.1441882f, 0.4734538f, 0.0675586f, -0.4868800f, -0.1681876f, 0.0159901f, -0.2728093f, 0.0223236f, 0.0543398f, -0.3717901f },
{ 0.4347686f, 0.0463476f, 0.1670268f, -0.7606381f, 0.0920824f, 0.0625006f, -0.4029312f, 0.1234916f, -0.0601829f, 0.6175238f, 0.2802550f, 0.1090923f, -0.1909415f, 0.0314766f, -1.7591574f, -0.2637155f, -0.1538986f, 0.0238809f, -0.0875757f, -0.0975868f, 0.7684730f, 0.8426940f, -0.0941518f, 0.2684856f, -0.0058117f, -10.0454845f, 0.1067403f, 0.0750130f, -0.0993555f, -0.0309512f, 0.0561977f, -0.2347473f },
{ 0.0409922f, 0.1252026f, -0.7250072f, -0.1632370f, -0.2488727f, 0.0848679f, -0.0361901f, -0.4016082f, -0.2203333f, 1.1973968f, -0.0349832f, 0.0891538f, 0.0773429f, 0.9790068f, 0.0140196f, -0.6181940f, 0.0008259f, 0.1703020f, 0.1956206f, 0.0469711f, -0.1399358f, -0.1059426f, -0.0845564f, 0.5247735f, -0.4168177f, 0.2389453f, -0.1287717f, -0.2795452f, -0.0839598f, -0.1198855f, 0.1266339f, 0.8785539f },
{ -0.1604675f, -0.1154097f, 0.0430371f, -0.3396449f, 0.3553901f, -0.1841611f, -0.0155372f, 0.2366901f, -0.2137580f, -0.4269584f, -0.1284006f, -0.1836522f, -0.0426178f, 0.2303948f, 0.5299826f, -0.1777083f, -0.1502801f, 0.0485623f, 0.2409263f, -0.1200678f, 0.0877845f, -0.1131477f, -0.1075625f, 0.8534498f, 0.3584637f, 0.8139464f, 0.0035417f, -0.2790751f, -0.2780668f, -0.1978194f, 0.3110197f, 1.3307898f },
{ -3.8311610f, -0.0765627f, 0.0601934f, 0.9509595f, 0.3562391f, 0.2125543f, 3.2524214f, -2.6518369f, -0.0106784f, -3.1646402f, -3.4489264f, 0.0267611f, -0.0750252f, 0.4877322f, -0.1150463f, -0.3609638f, -0.5429867f, 0.0245818f, -1.0261363f, -2.9360490f, -2.2606435f, -4.2995825f, 0.0045392f, 1.5694253f, 0.0487078f, -0.1535266f, -0.2125433f, -0.1418025f, -0.0030910f, -0.1255467f, -0.0646676f, -0.6895916f },
{ -0.6543748f, 0.1404578f, 0.3451660f, 1.7485518f, 0.0887713f, -0.1168299f, 1.3764918f, -0.2132055f, -0.1433221f, 0.7140198f, -0.1812819f, -0.0918199f, -0.1148490f, 0.2741868f, 1.3672613f, 0.0397617f, -0.2144312f, 0.0092239f, 0.2794899f, 0.1519081f, -1.4323626f, -1.6094507f, -0.0185318f, 0.3692340f, 0.0037822f, -0.9555461f, 0.1210370f, -0.0523308f, -0.2047019f, 0.0343695f, -0.1586231f, -0.1970655f },
{ -0.0878857f, -0.0263518f, 0.0262588f, 1.0115041f, -0.0052804f, -0.1914663f, -0.1782442f, -0.2547731f, -0.1739649f, -0.1094212f, -0.1812474f, -0.1053222f, -0.2271008f, 0.7469705f, -1.6172137f, 0.1349982f, 0.0268474f, 0.0444209f, 0.0389493f, 0.0477714f, 0.8817538f, 0.4376885f, -0.0588427f, -0.3105312f, 0.0881161f, 0.4110302f, -0.1968388f, 0.0269881f, 0.0318201f, 0.0618369f, -0.1176856f, 0.6723654f },
{ -0.0727131f, -0.0633626f, 0.1686615f, -0.7582669f, 0.0735156f, -0.2078926f, -0.4925263f, 0.1443049f, 0.1435149f, -2.9631524f, -1.1653658f, -0.0547728f, -0.1812909f, 0.5234177f, -0.9028810f, 0.0547674f, -0.2460496f, -0.0023474f, 0.1590143f, 0.0723781f, -2.9140718f, -1.6408551f, 0.0292753f, -7.0799952f, 0.0244448f, -0.5513304f, -0.2310102f, 0.1054814f, -0.1374896f, 0.0677119f, -0.1627122f, -0.3943495f },
{ -0.0201503f, 0.0888002f, 0.5539464f, 0.0241499f, -0.1892878f, -0.0032944f, 0.0918112f, 0.1020567f, -0.0870709f, -0.1618081f, -0.1409651f, -0.0798505f, -0.1930982f, 0.2291607f, -0.0076118f, 0.6112699f, -0.3340575f, 0.0047675f, -0.0478299f, 0.0380865f, -0.0074678f, -0.0498511f, -0.2697358f, -1.2720217f, 0.1055425f, -0.2364867f, -0.0461531f, -0.0411928f, 0.0388741f, -0.0448818f, 0.3749329f, -1.7105399f },
{ 0.1739193f, -0.1312366f, -0.2046250f, -0.3869388f, 0.0185123f, -0.2149922f, -0.2302930f, 0.0103841f, -0.2341226f, -1.4545209f, -0.1763433f, -0.0475320f, -0.0822321f, -0.1003000f, 0.5311023f, 0.0436333f, -0.0023973f, 0.0084316f, -0.2089833f, -0.3240256f, -1.3365675f, -1.6171230f, -0.0367703f, -0.7889261f, -0.0732724f, -1.7626301f, -0.1131722f, -0.1963803f, -0.1187550f, -0.1532356f, 0.0860177f, 0.2299207f },
{ -1.1930342f, -0.0547180f, 0.0077546f, 0.0703577f, -0.0125043f, -0.1228955f, 0.5186197f, -0.5549662f, 0.0514625f, -0.6293109f, -0.4463896f, -0.1740752f, -0.0709011f, -0.1239351f, 0.7429123f, 0.3216818f, -0.0537738f, -0.0138405f, 0.1272607f, -0.2764019f, -1.7978256f, -1.9295835f, -0.0242573f, -0.1163652f, -0.0716874f, 0.7463963f, -0.2876847f, -0.1693182f, 0.0070615f, -0.1647388f, -0.0137770f, 0.3816014f },
{ -0.0374091f, 0.1214236f, 0.8017760f, -0.0190529f, 0.9607880f, -0.0888631f, -0.2088793f, -0.1022699f, -0.0217622f, -3.5963104f, 0.2401372f, 0.0385921f, -0.0669488f, 0.8770810f, -0.0470659f, 0.3393055f, 0.0309345f, -0.1123345f, -0.3916802f, 0.5225380f, 0.0535061f, -0.1195862f, -0.1010376f, 0.3846071f, -0.8193149f, 0.0725353f, -0.2465824f, 0.0505409f, 0.1051056f, 0.1718011f, 1.0503333f, 1.7286651f },
{ 1.5618176f, 0.0257746f, -0.1820099f, 0.0432164f, -0.1212540f, 0.1120384f, -1.8030733f, 1.4243077f, -0.1199626f, -1.6351804f, 0.3008582f, 0.1181356f, -0.1444464f, -0.2563193f, -0.7076096f, 0.1262834f, -0.0056124f, -0.0259164f, 0.3804199f, 1.7318211f, -0.0844800f, 0.1234323f, -0.0762568f, -0.8227108f, 0.0171283f, -1.4267746f, -0.1252063f, -0.0761928f, -0.1036838f, -0.1595586f, 0.0689173f, 0.1236387f },
{ 0.1082773f, -0.1143418f, -0.0060834f, 0.0308474f, 0.0626298f, -0.1735525f, -0.0396384f, 0.0929673f, 0.0886436f, -0.0789343f, -0.1214138f, -0.0391705f, -0.0971710f, -0.1346456f, 0.0688622f, -0.0586575f, 0.1112037f, -0.0296722f, -0.0244878f, -0.0706239f, -0.0215578f, -0.0476437f, 0.0449964f, -0.0891689f, 0.0914606f, -0.1585557f, 0.0489456f, -0.1250189f, 0.1144389f, 0.0418509f, 0.1723356f, -0.0239139f },
{ -0.0077662f, 0.0001436f, 1.4297832f, -0.0163264f, -1.2391202f, -0.1529024f, -0.1040037f, -0.6028770f, -0.1347320f, 0.6758288f, 0.1325904f, -0.1191075f, 0.0340856f, -0.8231561f, -0.1498499f, -0.3172618f, -0.2307023f, -0.9919043f, -1.2022905f, 0.9092780f, -0.0171426f, -0.0261098f, -0.0651597f, -0.8166651f, -0.9707605f, 0.0504569f, 0.0359420f, -0.0391427f, 0.1316818f, -0.0771032f, -1.3435075f, -0.8509721f },
{ -0.0722337f, -0.1347810f, -0.1812460f, -0.1346437f, 0.0940084f, -0.0655551f, 0.0814849f, 0.0252894f, 0.0342659f, -1.5067606f, -0.1117650f, -0.0091154f, -0.1969431f, 1.3104087f, -0.3246227f, 0.3409768f, 0.1107241f, 0.0654421f, -0.0773064f, 0.0111605f, -0.0549967f, 0.0967928f, -0.1181499f, 0.0892670f, -0.0750075f, 0.4848146f, 0.0774296f, -0.3036065f, -0.0887509f, 0.1130012f, 0.0421181f, 0.7187917f },
{ 0.7809308f, -0.1420078f, 0.0202126f, -0.0845086f, 0.0505629f, -0.0432708f, -0.1093295f, 0.1958344f, 0.1414332f, -1.7882954f, 0.9661371f, -0.2117192f, 0.0007505f, 1.0275128f, 0.3999816f, -0.1881149f, -0.0532386f, 0.0471507f, -0.0475163f, 0.3524647f, -2.0272386f, -3.0989096f, -0.1813962f, 0.1990432f, 0.0199824f, -0.0264067f, -0.1354454f, -0.1402365f, -0.0119368f, 0.0453870f, 0.1532248f, 0.1366286f },
{ 0.3311580f, 0.0677510f, 0.0539897f, -0.8625029f, -0.0042678f, -0.1402884f, 0.0442485f, 0.0708470f, 0.0098743f, -0.3635499f, 0.4676469f, -0.1435525f, 0.0167415f, 0.3387164f, 0.2784787f, -0.2182810f, -0.0671526f, 0.0257247f, 0.0013152f, 0.2506077f, 0.6906869f, 0.9289583f, -0.0061836f, 0.2002989f, 0.0511734f, 0.7070561f, -0.2733817f, 0.0392913f, 0.1092671f, -0.1061831f, 0.0670358f, 0.6743603f },
{ 1.4717607f, -0.0471132f, 0.0782336f, -5.3357425f, -0.1863700f, 0.1317052f, -2.5989563f, 1.4535321f, 0.0732042f, 2.0801551f, -5.4863510f, -0.1170206f, 0.1325272f, 0.7166846f, -1.3057435f, -0.3062270f, -0.0902301f, 0.0148128f, 0.0759724f, -0.8434914f, -5.0536032f, -1.6169749f, 0.0262285f, -0.3063122f, -0.1365934f, -2.2166083f, -0.1576060f, -0.1795894f, -0.0613647f, -0.1466822f, -0.0655197f, -0.3199420f },
{ -0.0016629f, -0.0900425f, -0.0282679f, 0.2127752f, -0.1486693f, -0.1166291f, 0.0019456f, 0.1850950f, 0.0159653f, -0.1498734f, -0.0301919f, 0.1110696f, 0.0603018f, 0.1566539f, 0.0546829f, -0.1864148f, -0.0081341f, -0.1295647f, -0.0965354f, -0.1104350f, -0.0724927f, -0.0144789f, -0.1718501f, -0.1191733f, -0.0200722f, -0.0591046f, 0.1308924f, 0.1079331f, 0.1381102f, 0.0232214f, 0.0851329f, -0.0563827f },
{ 0.0683897f, -0.0332847f, 1.0454873f, -0.0169844f, -0.1783165f, -0.2304123f, 0.0540951f, 0.0115362f, -0.0719974f, 0.1570674f, -0.0720696f, -0.1354311f, -0.2991011f, -0.9400303f, 0.0673045f, 0.3423792f, -0.0114207f, -0.6377771f, -0.3050466f, 0.5263145f, -0.0349097f, 0.0173292f, -0.0730674f, -0.7482435f, -0.0891986f, -0.0452410f, -0.3278285f, -0.2178564f, -0.2019787f, -0.1841931f, -0.1713575f, -1.1494433f },
{ 0.1493161f, -0.0020096f, 0.1221827f, 0.2897913f, 0.3810606f, -0.0251314f, 0.0239244f, 0.2422694f, -0.0672990f, -0.8452098f, -0.0807822f, -0.0282106f, -0.1244187f, -0.0586106f, -0.3523554f, 0.2289741f, -0.0061373f, 0.0248609f, 0.5800122f, -0.1034101f, 0.0647989f, 0.0137882f, -0.1248868f, -0.0509199f, 0.2220220f, -0.7148120f, -0.2503434f, 0.0275551f, -0.2228722f, -0.0978995f, 0.4445029f, 0.3864284f },
{ -1.4848372f, -0.1098874f, 0.0458906f, 0.1659386f, 0.1734117f, -0.0955740f, 1.1335285f, -0.5498387f, 0.0162370f, -0.1373292f, 1.9351870f, -0.1484350f, -0.1207594f, -0.2705652f, 0.2737435f, -0.0043987f, -0.1024546f, 0.0114535f, -0.1828412f, -0.1748112f, 0.7897263f, 0.1864328f, -0.1488808f, 0.9502037f, -0.0185242f, 0.0901662f, -0.0866295f, -0.0297158f, -0.2114436f, 0.0442614f, 0.0682002f, 0.5031273f },
{ -0.1509447f, -0.1192117f, -0.1218759f, 0.0500931f, 0.1456553f, 0.1114282f, -0.0878372f, 0.1682416f, -0.0358136f, -0.0626267f, -0.1615747f, -0.1627741f, -0.0496936f, -0.0633414f, -0.1050618f, -0.1723127f, -0.0151887f, -0.1158533f, 0.1459690f, -0.0393644f, 0.1691083f, -0.0094352f, -0.0980576f, 0.1440654f, -0.0169314f, 0.0726568f, -0.1221900f, 0.1145530f, -0.0786198f, 0.0863250f, 0.1000714f, -0.0317964f },
{ -0.2895582f, -0.1712028f, -0.0551005f, -0.2093126f, 0.2291922f, -0.1208302f, -0.0140599f, 0.0296210f, -0.0966139f, -10.7054930f, -0.1443207f, -0.0978808f, -0.0186117f, -0.6777381f, 0.1984289f, 0.3776923f, -0.3316672f, 0.1466962f, 0.1728997f, -0.1443273f, -0.1448348f, 0.0492565f, -0.1434123f, -1.4749570f, -0.6262580f, -0.4250782f, -0.1719010f, -0.0669991f, -0.2342348f, -0.0478105f, 0.2024995f, -0.8659196f },
{ -0.0256472f, -0.0002660f, -0.2166444f, -0.0738760f, -1.2638777f, -0.0766808f, -0.0999529f, -0.4979699f, -0.1679328f, 0.4595787f, -0.0095418f, -0.0102974f, -0.0600762f, -1.3303856f, -0.0097398f, 0.5654797f, 0.0226862f, 1.5796020f, -1.4453220f, 0.8457595f, -0.0340742f, -0.0455885f, 0.0219827f, -1.5914397f, -1.0530035f, -0.1073536f, -0.0248012f, -0.0923733f, -0.2125895f, -0.1712061f, -1.4646537f, -1.4895207f },
{ -1.6778111f, -0.1601146f, 0.2460963f, -0.1311722f, 0.0111340f, 0.0157983f, -0.0907386f, 0.2162506f, -0.2063970f, 0.6530523f, -0.6686512f, -0.0878385f, -0.2536843f, 0.4118901f, -0.2011523f, 0.3115957f, -0.0397827f, 0.0435413f, 0.1058199f, -0.1789134f, -1.1632329f, -0.1079202f, -0.1807032f, 0.1043108f, -0.1610985f, -0.2139927f, -0.1316371f, -0.1632147f, 0.0744238f, -0.2145781f, -0.0477436f, -0.1509710f },
{ -0.5917184f, -0.0323960f, 0.2335348f, -0.7518190f, -0.0157466f, -0.2055214f, 1.2209512f, -0.4213741f, -0.1886086f, -0.1655306f, 0.5178809f, 0.0711141f, -0.1703165f, -0.3609640f, 1.1595372f, 0.1919434f, -0.0032162f, -0.0187318f, 0.2474741f, -0.2738174f, -1.3756371f, -1.5439810f, 0.1529742f, 0.1431638f, -0.0175138f, 1.3864748f, -0.1694331f, -0.2547923f, -0.2047046f, -0.2453520f, -0.1666009f, 0.1022147f },
{ 0.1645427f, -0.0853379f, 0.4887083f, 0.0979937f, -0.1608700f, 0.0728554f, 0.1271080f, -0.1269774f, -0.2500992f, 0.8969108f, 0.0821343f, 0.0708101f, -0.0498351f, -0.8328992f, -0.1763999f, 0.5921712f, -0.1466743f, 0.4387586f, 0.1498752f, 0.1691915f, -0.0498234f, 0.0654793f, -0.3119153f, 0.3139277f, 0.1994461f, 0.1598893f, 0.0008228f, -0.2084603f, -0.1476805f, -0.0346197f, 0.1881676f, -0.6793410f },
{ -0.0566034f, -0.1155872f, 0.6250203f, 0.1146714f, 0.2846725f, -0.1392682f, 0.1363256f, 0.1698265f, -0.2156312f, -2.1494486f, -0.0001516f, 0.0519269f, -0.1131516f, -0.7872478f, 0.1029291f, 0.4219599f, -0.4724679f, 0.3514116f, 0.0433130f, 0.3207802f, -0.1885985f, -0.2855870f, -0.1262253f, 0.2446608f, 0.0556356f, -0.0583949f, -0.2593247f, 0.0592446f, -0.3155912f, -0.1868130f, 0.1695357f, -0.6342844f },
{ 0.2048713f, -0.0564092f, -0.0514727f, -0.4343493f, -0.1240554f, -0.1145973f, -1.7292448f, 0.1630976f, 0.0567364f, 1.2193106f, 0.0607705f, 0.0692415f, 0.0370567f, -0.0437234f, -1.4417483f, -0.1012923f, -0.3577269f, -0.0428668f, -0.0716202f, 0.2521861f, 1.3542418f, 1.3056177f, -0.0950843f, 0.3022867f, 0.0057765f, 0.7606153f, -0.2149219f, -0.2267303f, -0.0991279f, 0.0064110f, 0.2234344f, -0.4032022f },
};

HOST_DEVICE_CONSTANT float bias_fc3[6] = {
-0.0421758f, -0.0415462f, 0.0253200f, 0.0149458f, 0.0983068f, -0.0326678f };

HOST_DEVICE_CONSTANT const float wgtT_fc3[32][6] = {
{ 0.0678243f, 0.2661518f, -0.1593691f, 0.3219597f, 0.0321816f, 0.3357845f },
{ 0.0278189f, 0.1877984f, 0.0603562f, -0.1885983f, -0.0486923f, 0.1026602f },
{ -0.3664604f, 0.1943494f, -0.1498075f, -0.7093573f, -0.2220068f, 0.6729779f },
{ -0.0690984f, -0.3397311f, 0.1884324f, -0.3631896f, -0.0332785f, -0.4554980f },
{ 0.8531505f, 0.0108465f, 1.0224540f, 1.4485661f, 0.4904761f, -0.6295180f },
{ -0.0501736f, 0.0478161f, 0.0256374f, 0.0478823f, 0.0976870f, 0.0054463f },
{ -0.1019815f, -0.4145193f, 0.2254768f, -0.4786906f, -0.0509941f, -0.5355405f },
{ 0.0007486f, -0.1951554f, 0.2655158f, -0.1855524f, -0.0012509f, -0.2661994f },
{ -0.1362765f, -0.0601508f, 0.0953120f, -0.0375179f, -0.0145986f, -0.0642478f },
{ 0.0614157f, 0.1741399f, 1.7897520f, -0.4955468f, -0.0541786f, 0.6704727f },
{ -0.0603433f, -0.2573643f, 0.1621609f, -0.3018233f, -0.0305117f, -0.3302076f },
{ -0.0064723f, -0.0309874f, 0.1056230f, -0.1201717f, 0.0174906f, 0.2065753f },
{ -0.0140734f, -0.0610050f, 0.1332588f, 0.0684653f, -0.1282044f, -0.0745818f },
{ -0.0942353f, -0.0900116f, -0.3760305f, -0.0390543f, -0.0543291f, -0.1438896f },
{ 0.1029556f, 0.4561358f, -0.2528237f, 0.5092158f, 0.0491527f, 0.5984445f },
{ -0.0303954f, 0.1623458f, 0.2137813f, -0.1014597f, -0.0383554f, 0.3570537f },
{ -0.0029496f, 0.1008848f, -0.0190401f, 0.0924715f, 0.0295847f, 0.1077743f },
{ -0.4224749f, 0.1206999f, -0.3027743f, -0.7971590f, -0.2451967f, 0.5698268f },
{ 0.8627461f, -0.1519582f, 0.6414289f, 1.6429650f, 0.4988425f, -0.9977114f },
{ -0.2937736f, -0.0852270f, -0.2334082f, -0.6072204f, -0.1603858f, 0.1062072f },
{ 0.1102232f, 0.4593959f, -0.2620526f, 0.5310852f, 0.0549747f, 0.5898068f },
{ -0.0890709f, -0.3920310f, 0.2229841f, -0.4477753f, -0.0448947f, -0.5116633f },
{ -0.0522665f, -0.1414819f, -0.1418347f, 0.0553808f, 0.0050196f, -0.1312566f },
{ -0.0365006f, -0.0325684f, -0.1694201f, -0.0071975f, -0.0184860f, -0.0557442f },
{ 0.9990061f, -0.1402852f, 1.3954117f, 1.5639039f, 0.5710538f, -0.9304276f },
{ 0.1114534f, 0.4791456f, -0.2954183f, 0.5476748f, 0.0615123f, 0.6193261f },
{ -0.1355854f, -0.0253800f, -0.0315625f, 0.0828502f, 0.1598733f, -0.0241216f },
{ -0.0269178f, 0.0798102f, 0.0149830f, 0.0022423f, 0.0363833f, 0.1227342f },
{ 0.0185677f, 0.1751769f, -0.0617444f, 0.1262674f, 0.1212653f, 0.1916658f },
{ 0.0498395f, -0.0703880f, -0.0413551f, -0.0718272f, 0.2414165f, -0.0772250f },
{ 0.6680502f, -0.2481178f, 1.0011384f, 1.0104793f, 0.3678042f, -0.8643201f },
{ -0.0819462f, -0.0573730f, -0.3388957f, -0.0274616f, -0.0430206f, -0.0928122f },
};

}  // namespace ALPAKA_ACCELERATOR_NAMESPACE::lst::dnn::plsembdnn

#endif
