#ifndef RecoTracker_LSTCore_src_alpaka_T3NeuralNetworkWeights_h
#define RecoTracker_LSTCore_src_alpaka_T3NeuralNetworkWeights_h

#include <alpaka/alpaka.hpp>

namespace ALPAKA_ACCELERATOR_NAMESPACE::lst::t3dnn {

  HOST_DEVICE_CONSTANT const float bias_layer1[32] = {
      -0.2627841f,  0.0059654f,  -1.2097707f, 0.0577601f,  -7.3805332f, -0.2212038f, -0.0723716f, -0.0273308f,
      5.1590590f,   -1.3129746f, -0.7206987f, 3.6706116f,  -4.4685054f, 0.8050013f,  -0.0133669f, -0.3556877f,
      -3.3106117f,  -0.0752867f, 1.0860413f,  -3.9797719f, 0.0039556f,  -7.6881080f, -2.0296855f, -0.2235096f,
      -20.8147888f, -0.4787821f, 6.8188891f,  0.8549373f,  -0.2545580f, -0.1812256f, -0.0329677f, 0.2457884f};

  HOST_DEVICE_CONSTANT const float wgtT_layer1[14][32] = {
      {0.2006950f,  0.0082387f, -0.3748818f, 0.2377538f, 6.7150211f,  -0.0977085f, 0.0458572f,  0.0045279f,
       -0.5217038f, 0.5697329f, 2.5272076f,  5.8253336f, 4.3396115f,  0.4371617f,  -0.2997586f, 5.0937381f,
       -1.7397610f, 0.0161637f, -1.9346550f, 3.7016492f, -0.1427350f, 4.2522988f,  1.0191960f,  -0.2436244f,
       3.0223954f,  0.1028274f, -1.0745809f, 8.6680336f, -0.1366939f, -0.1972376f, -0.0069632f, -0.2492642f},
      {0.1758677f,  -0.1760893f, 0.0357523f,  -0.2341647f, -0.0856097f, 0.1452622f,  0.0046594f,  0.0681234f,
       0.0233871f,  -0.0086440f, 0.0022060f,  -0.0052646f, -0.0133705f, -0.0510834f, 0.0510190f,  0.0247512f,
       -0.0543890f, -0.0002459f, 0.0326998f,  -0.0207296f, 0.0014281f,  0.0847233f,  -0.0141290f, -0.3140768f,
       2.6912332f,  -0.0021162f, -0.0353616f, 0.0248395f,  -0.0232357f, 0.1880471f,  0.0469829f,  -0.0484759f},
      {-0.0292384f, -0.1998601f, -0.3142217f, -0.2003696f,  -4.3095121f, -0.0748641f, 0.0454795f, -0.1998114f,
       1.0414056f,  0.6837901f,  -3.9637461f, -3.5359223f,  -2.0972428f, -6.9742289f, 0.0656677f, -10.1832628f,
       3.0082049f,  0.0684401f,  1.2901806f,  -3.0670502f,  0.1608646f,  -0.6480985f, 0.9987713f, 0.1371725f,
       36.6040955f, 0.2975810f,  -1.2502925f, -16.5268917f, 0.1061329f,  -0.2571723f, 0.0437473f, 0.0361042f},
      {-0.2691129f, -0.2237637f, -2.4155598f, -0.2643464f, 9.9059305f,  0.1806098f, -0.0323200f, -0.0097629f,
       -3.2381861f, 0.0775101f,  4.7886615f,  11.8339195f, 6.9661698f,  8.8934546f, 0.1260311f,  3.3401899f,
       0.2939263f,  -0.0466054f, -4.0731478f, 4.4206409f,  -0.0611720f, 9.4487896f, -0.2878171f, 0.0746058f,
       -7.5597925f, -0.0299444f, 4.3303614f,  5.0333538f,  -0.0490670f, 0.1101368f, -0.1535927f, -0.0626446f},
      {0.2216043f,   0.2343349f,  -35.5243568f, 0.2015684f,  24.0183926f,  -0.1548829f, 0.0554529f,  -0.2578786f,
       0.7742881f,   -1.5943197f, -25.8237076f, 16.4650440f, -26.3157425f, 10.8236561f, 0.0118571f,  -2.3774350f,
       6.0014563f,   0.0415506f,  23.2180061f,  48.6853065f, 0.0057018f,   0.2666098f,  -0.1910799f, 0.0771508f,
       120.7956924f, -1.2048012f, 13.4884939f,  -0.6089943f, -0.1237042f,  0.2201121f,  0.0803275f,  -0.2661308f},
      {0.1663697f,  -0.2623191f,  -0.1592510f, 0.1777868f,  -12.1486454f, -0.0376823f, -0.0571597f, 0.1502915f,
       5.7393837f,  -92.0349960f, 4.0711393f,  5.7815304f,  3.8651402f,   -4.0429420f, -0.2398285f, -0.1965889f,
       -3.7352536f, -0.1839874f,  -1.1162810f, 3.2654970f,  -0.0314074f,  1.7719162f,  74.2097015f, -0.1849953f,
       -8.5192184f, 100.2605591f, 24.1645164f, -5.0115886f, 0.8082604f,   -0.1444610f, -0.2021921f, -0.2278627f},
      {-0.0067919f, -0.2450378f, 2.3525386f,  -0.2449015f,  5.3176618f,  0.1344521f,  -0.1550882f, 0.0874633f,
       -0.7526563f, -3.9597919f, -3.9335001f, 1.9294076f,   -1.7937902f, 2.9496963f,  -0.1504007f, -6.7788939f,
       -6.3186989f, -0.1403122f, 2.6144650f,  -0.4062437f,  0.0268483f,  -2.7099948f, -3.2583628f, 0.1802378f,
       -6.1691403f, -2.2461689f, 7.6234598f,  -12.4822416f, 0.1636234f,  -0.2624060f, -0.2031932f, 0.0023877f},
      {0.0293649f,  -0.2442698f, -5.0738816f,  0.2077300f,  -3.7623627f, -0.2244045f, 0.1982011f,  0.0000841f,
       6.9406209f,  2.5011215f,  -21.3252583f, 6.0603437f,  1.8578333f,  -5.2400723f, -0.0319986f, 0.7304122f,
       18.0552330f, 0.2514108f,  1.6854395f,   -7.9173875f, 0.1889230f,  2.2336349f,  3.5394704f,  -0.0934350f,
       2.5730116f,  -0.3024755f, 2.4647636f,   3.6446362f,  -0.0355763f, -0.1630904f, 0.0472730f,  -0.0991199f},
      {0.2487959f,  0.2373145f,  27.1731415f,  -0.1029455f,  46.2813530f,  -0.0891694f,  -0.0549170f, 0.0859500f,
       4.9075680f,  2.7437937f,  27.3188343f,  -74.2262039f, -22.4868336f, -26.3189983f, -0.1154891f, 2.4379599f,
       2.3254170f,  -0.0063603f, -37.3133392f, -21.6550274f, 0.1100948f,   3.8157012f,   4.7530880f,  -0.2949312f,
       31.4545689f, 2.3288693f,  -30.2678967f, 3.2077222f,   0.3239573f,   -0.0852792f,  0.1381298f,  0.0614969f},
      {-0.2102214f,   -0.0061363f,  -2.7030761f, -0.2419765f,  7.6390896f,   0.1365518f,   -117.6772003f, -0.1267713f,
       -3.1180863f,   -88.8711014f, -6.2862363f, -13.3083677f, -19.8547363f, 10.2437906f,  -0.0452404f,   -3.1032045f,
       8.1854286f,    113.7723694f, -0.8972937f, -8.6131973f,  0.1107222f,   -10.8649149f, 98.3143463f,   0.0430512f,
       -102.5683289f, 109.3768311f, 13.2194824f, 8.2038450f,   0.2298402f,   0.2110849f,   0.1626354f,    -0.2586321f},
      {0.0024869f,  0.1887256f,  -0.9009225f, -0.0705631f, -2.2180753f, 0.0296620f,  -0.2504204f, -0.1540784f,
       -5.2535152f, -1.2913636f, -3.8612471f, 2.7656038f,  1.1660891f,  -1.6195079f, -0.1836269f, -3.8501170f,
       0.0926964f,  -0.2054750f, -2.1360323f, 8.4415493f,  0.0236436f,  -5.8730478f, -4.1600509f, -0.1247238f,
       -7.2618494f, 0.2426287f,  2.0073988f,  -8.3812819f, -0.1647647f, -0.2219553f, -0.0644622f, 0.2170908f},
      {-0.0091879f, 0.1473843f,  -0.1205490f, 0.2177662f,   -7.4303441f, 0.2657689f,  0.0105836f,  -0.0090054f,
       8.9955425f,  -0.2476748f, 10.3493071f, -11.6069613f, -3.6757202f, 0.2411233f,  -0.1860594f, -1.0367841f,
       4.5588660f,  0.0240377f,  6.5130968f,  -1.8685462f,  0.0419716f,  -2.9685256f, 0.2867936f,  0.1092803f,
       -2.8798423f, 0.5401092f,  -1.6430404f, 1.3588480f,   0.0779147f,  0.1214098f,  0.1296093f,  -0.1233551f},
      {-0.2574649f, -0.1607236f, 1.2273051f,  -0.2439342f, 0.9229670f,  -0.1638826f, 0.0161970f,  -0.1382105f,
       -2.4981825f, 0.3287901f,  0.3424906f,  -5.4106450f, 0.2126132f,  -1.0229053f, -0.2861951f, 0.1667756f,
       0.6168849f,  0.0228831f,  0.1792641f,  0.0928626f,  -0.2153569f, 1.0658988f,  0.5080619f,  -0.2047927f,
       -8.6238918f, 0.1627280f,  -3.2828293f, 0.0025763f,  -0.0418314f, -0.0737448f, -0.0288499f, -0.2387194f},
      {-0.3283943f, 0.2373758f,  -0.8504797f, -0.1094363f, -1.3891525f, 0.1122566f,  -37.4119148f, 0.1664521f,
       1.0705926f,  -8.4149790f, -1.3771471f, -2.9865568f, -4.8437672f, 1.2063280f,  -0.0651284f,  -1.0561481f,
       1.1685601f,  36.1455421f, -1.3108484f, -1.8550266f, -0.0896725f, -3.1967709f, 5.2338161f,   -0.1875807f,
       29.6112423f, 40.4331322f, 10.0124531f, 0.9503814f,  0.3338171f,  0.2292082f,  0.0604849f,   0.1193663f},
  };

  HOST_DEVICE_CONSTANT const float bias_layer2[32] = {
      -8.3618898f, -1.4617021f, -5.4505978f, 6.0156856f, -0.2669498f, -0.2907020f, -0.0887258f, 0.8786760f,
      1.7125111f,  1.2466227f,  0.1516754f,  0.5339400f, 3.4475234f,  2.8004615f,  -1.3601738f, 1.1754018f,
      -2.7938242f, -3.7988420f, -6.4266930f, 2.0458889f, 1.2131187f,  0.7138515f,  -5.2695785f, 2.2445467f,
      -4.5237765f, -1.0139925f, -2.8084147f, 0.9882097f, 0.1779482f,  4.9432387f,  2.3145647f,  1.8138748f};

  HOST_DEVICE_CONSTANT const float wgtT_layer2[32][32] = {
      {-0.1574480f, 0.0378272f,  0.1176601f,  -0.0829519f, 0.0027499f, -0.0917993f, 0.0280387f,  -0.1143852f,
       -0.1281557f, -0.3449199f, -0.0516188f, 0.0162449f,  0.1243181f, -0.0670857f, 0.1739808f,  0.0817537f,
       0.1768098f,  0.0805798f,  -0.2118975f, -0.1999035f, 0.0199857f, -0.2002635f, -0.0202349f, -0.0962385f,
       0.1490647f,  0.2087372f,  0.2670052f,  -0.0614603f, 0.1477122f, 0.0002412f,  -0.1712743f, 0.0824829f},
      {0.0600306f,  0.1601057f,  -0.1716482f, 0.0181941f,  -0.1202408f, 0.0886172f,  -0.1558127f, 0.1264920f,
       0.0065717f,  0.0766239f,  -0.1564280f, 0.1057054f,  -0.1083898f, 0.0654978f,  -0.1651067f, -0.1213393f,
       -0.0674210f, -0.1536415f, -0.0033809f, -0.1505926f, -0.0495253f, -0.0568713f, 0.1184956f,  0.0092745f,
       0.0071956f,  -0.1547120f, 0.0188620f,  -0.0183119f, 0.0663256f,  0.0848043f,  0.1057671f,  -0.0201874f},
      {1.1332741f,  -1.3171177f, 0.8915796f,  -0.7469592f, 0.0197169f,  -0.1275858f, -0.0030439f, -2.3956835f,
       0.4703181f,  -0.6092288f, 0.1870308f,  -0.4938927f, -0.9244522f, -0.2984136f, 1.0062693f,  -0.3089625f,
       -1.6441083f, 0.0921497f,  1.6171696f,  -0.4113712f, -0.2168036f, 0.3298945f,  -0.7124298f, 0.8850391f,
       0.5724671f,  -1.5782690f, -1.6364939f, -0.6750113f, 2.4414711f,  -1.6386597f, 0.9856364f,  -0.0246771f},
      {-0.0222609f, -0.1063614f, -0.0533082f, -0.0044030f, -0.0827699f, 0.0744049f,  -0.1155570f, -0.0762319f,
       -0.0310489f, 0.0407606f,  0.0558981f,  0.0754703f,  0.1469250f,  -0.0509948f, -0.0317851f, 0.1644348f,
       -0.0651543f, 0.1545054f,  -0.1162325f, -0.1085038f, 0.0501450f,  0.1251905f,  0.1283657f,  0.1046780f,
       -0.1762740f, -0.0325223f, -0.0747969f, -0.0364579f, -0.1410434f, 0.0872527f,  0.0382314f,  0.1438062f},
      {-3.4084198f, 0.9819498f,  -0.4392098f, -0.2389905f, -0.1234167f, -0.0123045f, -0.2583260f, 0.6030509f,
       -0.1613112f, -0.6819408f, 0.3200946f,  0.5009492f,  -0.5950989f, -0.7827224f, -1.6980628f, -1.7112828f,
       -0.0431549f, -1.2659972f, 0.5952779f,  -1.4107502f, 0.4734771f,  -0.3060953f, -1.4560102f, 0.1520218f,
       0.6433443f,  1.6628433f,  -7.0262556f, -0.8217835f, -0.1951546f, -1.5524786f, 0.1079687f,  -0.8326439f},
      {-0.0504308f, 0.0277424f,  -0.1644589f, -0.0215130f, -0.1600345f, -0.1239371f, 0.1083925f,  0.0111246f,
       0.0756240f,  0.1706815f,  0.1259931f,  0.1261939f,  -0.1408964f, 0.1164417f,  -0.0571154f, 0.0068064f,
       -0.1655259f, 0.1225286f,  0.1567173f,  0.0112606f,  -0.1100180f, 0.0132447f,  0.1327745f,  -0.1120829f,
       0.0184118f,  -0.0613228f, 0.0632078f,  -0.0650799f, -0.0739556f, 0.0402389f,  -0.0966804f, -0.0210884f},
      {-5.9299369f, 0.5538142f,  -0.1538814f, -2.4075806f,  -0.0115916f, 0.0054380f,   -0.0762106f,  1.2806780f,
       1.5527557f,  3.3520789f,  2.6695597f,  -0.4333453f,  -2.2392032f, -2.4887111f,  -4.2307720f,  -2.2181408f,
       -0.0185894f, -0.5020272f, 2.5457175f,  -1.6059003f,  2.2186532f,  -48.2528191f, -0.7933161f,  -30.2943954f,
       0.5457695f,  -1.7512304f, -1.2526653f, -30.0043964f, 0.6165354f,  1.0416126f,   -10.2710390f, -353.1051331f},
      {-0.0288316f, -0.0205352f, -0.1766569f, -0.1642201f, 0.1648765f,  0.0124650f,  0.1291798f,  0.0693409f,
       -0.0203481f, -0.0577154f, 0.0205844f,  0.1240039f,  -0.0150644f, 0.0469033f,  -0.1605739f, -0.0286287f,
       0.0885924f,  0.1233641f,  -0.1470510f, -0.0570986f, 0.1134693f,  -0.0606381f, -0.1001581f, 0.1245883f,
       -0.0580538f, -0.1621964f, -0.1259867f, 0.0342497f,  0.0901004f,  0.0147610f,  0.0558765f,  -0.0362830f},
      {-0.3631804f, -6.2696900f, -1.0258197f, -1.0135899f, 0.0108966f,  -0.0609921f,  -0.1404783f,   -1.4941584f,
       -0.8776957f, -3.1189671f, -1.1576008f, 0.2724806f,  1.1600127f,  0.0501574f,   1.5749463f,    3.0190406f,
       -0.1745482f, -0.2480129f, -2.7539179f, 2.2457831f,  -0.4505782f, 0.4541788f,   -3.9154921f,   -0.0676991f,
       0.6870475f,  -1.6322099f, -2.6160672f, -2.8706393f, -0.4947204f, -37.2419472f, -557.8376465f, 1.6693165f},
      {3.2209334f,  2.3133571f,  0.0584621f,  0.3372350f,  -0.1687465f, -0.1566684f, -0.1725047f, -0.1903245f,
       -2.5897141f, -5.3073125f, 0.3712018f,  -0.2988772f, -0.5710459f, -0.1171784f, -0.7066285f, -2.3221533f,
       0.7725319f,  0.1735720f,  0.1021823f,  -2.5554812f, -0.5008767f, 0.0462856f,  3.5474989f,  -1.1903964f,
       -1.0147122f, 0.2335760f,  -0.1745985f, 0.7400030f,  0.1554261f,  -6.2108002f, -3.4750240f, -1.9672348f},
      {0.1574077f,  -0.0569245f, -3.7873132f, 0.1187575f,  -0.1413190f, -0.1645611f, 0.0165619f,  0.8008448f,
       -0.4114408f, 0.1693336f,  -0.2424478f, -0.4433094f, -0.3406014f, -0.0043793f, -1.1765399f, -0.6455382f,
       -0.2426678f, 1.0455967f,  0.1556669f,  -0.5359957f, -4.9313488f, -0.1389074f, 0.4523655f,  -0.5687725f,
       0.5808315f,  0.4157625f,  -1.2283157f, 0.1288629f,  -7.2100825f, -0.7717556f, 0.1290599f,  -0.2522430f},
      {0.2561168f,  -3.4595277f, -0.7189871f, 0.0038062f,  -0.0370261f, -0.0096800f,  -0.1848091f,   -0.2135599f,
       0.4403198f,  -0.1467486f, -0.2554518f, -0.0128640f, -0.3171312f, 0.0664147f,   0.2513624f,    1.9532801f,
       0.8937137f,  0.8773774f,  -2.3831267f, -1.5070946f, -0.5602962f, -0.0403202f,  -1.1293964f,   -0.9203569f,
       -0.1581307f, -0.1953498f, -1.5342332f, -0.1952743f, -0.0981015f, -18.7168350f, -380.2195129f, -1.4735342f},
      {2.2964516f,  -0.5490352f, -0.0256233f, -0.6687602f, -0.0248834f, -0.1802164f, -0.3123608f, 1.5263932f,
       -0.2391665f, -1.0918430f, 0.2816530f,  0.7705096f,  -0.7280338f, -0.4347511f, 0.4571051f,  0.1831165f,
       3.0358074f,  1.4564565f,  -0.2003526f, 0.1822194f,  -1.6256517f, 0.0553499f,  1.5568720f,  0.1190766f,
       -0.1465676f, -1.5799096f, 3.4514859f,  -0.8059847f, -2.4819813f, -0.1048547f, -0.7219784f, 0.3501185f},
      {-0.8597400f, -1.8026989f, -2.9077456f, -0.0129849f, -0.2145305f, 0.0244068f,  -0.1204487f, -287.1034851f,
       -0.6324997f, 0.1364276f,  1.4900130f,  -2.5826912f, 0.3288003f,  -0.7752362f, -0.9522983f, -35.2735672f,
       0.3424755f,  -0.4461509f, -1.7148470f, -1.9146827f, 0.8409587f,  0.2014283f,  -0.6145231f, 0.5980213f,
       -0.7680487f, -0.5205988f, 1.4947224f,  0.0348110f,  0.2916525f,  -1.4733392f, 0.7030602f,  -1.0623580f},
      {-0.1187812f, -0.1415255f, 0.0520271f,  0.1749542f,  -0.0140126f, 0.0906140f,  0.1495841f,  -0.0434553f,
       -0.1453566f, 0.0860816f,  0.1289781f,  -0.0741791f, 0.1372480f,  -0.0705635f, -0.1536219f, 0.1400281f,
       -0.0374603f, 0.0767075f,  0.0790120f,  -0.0960434f, 0.1167065f,  0.0063075f,  -0.0774684f, -0.0749757f,
       0.1127431f,  -0.1616336f, -0.0836441f, -0.1392378f, -0.1667737f, -0.0278295f, -0.1424826f, -0.0493846f},
      {67.3069229f, 88.5661545f, -1.4824846f, 5.8702736f,  0.0484166f,  0.0492985f,  -0.1668157f,  -161.5681152f,
       1.1232617f,  -3.0649977f, -0.9893238f, -1.1200701f, 1.8817576f,  -0.2967597f, 5.6244416f,   -49.6316490f,
       -4.0586605f, -2.8654239f, -3.6611619f, -0.1088664f, 56.6686325f, -7.6647072f, -71.0837173f, 1.4971244f,
       -2.2532301f, 4.8999786f,  0.0733177f,  -2.7847147f, -3.0110595f, 1.0168090f,  -2.6784713f,  -0.1685513f},
      {-1.9009635f, 0.5713896f,  -3.4444828f, 0.3839946f,  -0.0297298f, 0.0398474f,  -0.1943947f, -144.7189636f,
       1.2243801f,  -0.0006925f, 1.3574266f,  -2.1967034f, -0.2713160f, -0.4824215f, -0.2734301f, -0.7932791f,
       -1.1247689f, 0.5816668f,  1.3986808f,  -0.7246765f, 0.3667055f,  -1.0952175f, -1.5116295f, 1.3467232f,
       0.8165830f,  0.5122221f,  -0.5066210f, -0.3923174f, -1.6431110f, -0.3270552f, 0.1592430f,  0.0049583f},
      {-1.3412920f, -3.1661577f,  0.2160328f,  -1.9454505f, -0.0713743f,   0.0134445f,   0.0433326f,  0.8372995f,
       -1.3259634f, -33.6091995f, 0.3297225f,  0.5546983f,  -2.2067943f,   -1.3233680f,  -0.4139072f, 1.3562486f,
       1.2378426f,  0.3693805f,   1.1319524f,  -7.1959009f, -105.5054550f, -52.5244141f, -1.1153383f, -31.3081779f,
       1.5281254f,  -3.1583602f,  -1.1121968f, 1.3550351f,  0.4459269f,    3.0949476f,   0.2675787f,  -0.1622284f},
      {1.0880773f,  0.0716601f,  3.7495565f, 0.2901883f,  0.0058320f,  -0.1838013f, -0.0754638f, -6.3146405f,
       0.7294466f,  0.3172357f,  0.5343211f, 1.2905207f,  -1.9386563f, -0.6215242f, -0.7530740f, -0.5605533f,
       -1.9007640f, 0.7502047f,  1.2833687f, -0.6316779f, 0.1778034f,  -0.1792682f, 0.7053300f,  0.6087196f,
       -0.5495732f, -0.3445445f, 0.0731252f, 0.0195087f,  2.0366173f,  -2.2070959f, -0.2464221f, -0.7042295f},
      {-1.7686607f, -3.1009376f, -1.2556312f, -0.9415020f, -0.1544762f, -0.1476233f, -0.2844500f, -0.4340146f,
       -0.7990610f, -0.2026547f, 0.9867100f,  0.6737282f,  -2.7204247f, -1.0829062f, 0.1857623f,  -1.0896399f,
       -1.8673880f, -1.0193295f, -1.3147249f, 0.6950695f,  -0.1807247f, 0.5883061f,  -2.0428565f, -0.6749998f,
       0.6011821f,  0.5079499f,  -0.3083283f, 0.4616996f,  0.6099676f,  -1.5298941f, -3.4534962f, 0.6046252f},
      {0.1319447f,  0.0333723f,  -0.0055981f, 0.0209460f,  0.0118045f,  -0.1366288f, 0.0226063f,  0.1376221f,
       -0.0209756f, -0.1548166f, 0.0125887f,  -0.0649098f, -0.1505393f, -0.0319356f, -0.0745484f, -0.0905989f,
       0.1638540f,  -0.0302655f, -0.1476417f, -0.1674045f, 0.0721295f,  0.1244926f,  -0.0418886f, 0.0449868f,
       0.1318340f,  0.1540201f,  0.0210283f,  -0.0884992f, -0.0462807f, -0.0438393f, 0.0448818f,  0.0946411f},
      {2.9830370f,  -0.6172655f, 0.3869158f,  0.1406376f, -0.1252753f, 0.0350366f,  -0.2044994f, -3.9059517f,
       0.4078437f,  0.2351279f,  -2.2866249f, 0.8152496f, -1.7957894f, 0.7109780f,  0.1453549f,  -0.4253395f,
       -2.0238352f, -0.2913134f, 1.1053480f,  0.1633640f, 0.0587811f,  0.2639804f,  1.1989821f,  -1.0217001f,
       -0.9077383f, -0.2799853f, -0.3572704f, 0.2605401f, 0.2118955f,  -0.7321603f, 1.6541001f,  0.0707033f},
      {5.2977505f,  0.3746310f,  0.1000569f,  0.7585303f,    -0.0154229f,  -0.0186376f, -0.0342826f, -0.4759333f,
       -3.3615999f, 0.2024753f,  -0.4347800f, 0.1018815f,    -0.1040967f,  0.3241213f,  1.6059742f,  -0.0755768f,
       0.5026419f,  0.4553617f,  0.2722515f,  -0.6073690f,   -39.3941116f, -0.6076857f, 3.0684521f,  -2.7501478f,
       -0.1944696f, -0.6881080f, -0.3311519f, -230.6907501f, -0.2281905f,  -4.5818009f, -0.3022721f, -33.7614517f},
      {-0.0676847f, 0.1095379f,  0.0037277f,  0.0082566f,  -0.1394868f, -0.1618270f, 0.0562229f, 0.1742510f,
       0.0926203f,  -0.0544793f, 0.0788530f,  -0.0637861f, 0.0119847f,  0.0424943f,  0.1346335f, 0.0293255f,
       -0.0758042f, 0.0769051f,  -0.0000611f, 0.1069200f,  0.1496550f,  -0.0522809f, 0.1222807f, 0.0938061f,
       0.0497483f,  -0.1693723f, 0.0938494f,  -0.0097967f, 0.0405525f,  0.0651841f,  0.0044856f, 0.0460583f},
      {-19.8192482f, 1.5539455f,   18.0816727f, -102.1537933f, 0.1369985f,    0.0959447f,    -0.0075699f, -148.0507965f,
       25.9252739f,  -30.4542370f, 11.7060442f, -407.7998352f, -103.0809402f, -39.7926750f,  4.2303462f,  4.9364805f,
       -97.7243500f, 7.4788079f,   44.2006187f, 29.7441044f,   43.8099442f,   -62.3179359f,  36.1153908f, -28.4708424f,
       -7.1630530f,  -5.1684918f,  11.3444529f, -122.2124100f, 1.0469818f,    -176.4863892f, -2.5367782f, 15.4792585f},
      {-3.3897436f, 4.3367901f,  -0.3748562f, -0.6011298f, -0.0925576f, -0.1150045f, -0.2178916f, 0.5724601f,
       1.4792722f,  1.4410440f,  2.3455641f,  -0.7365589f, -1.0775421f, -1.1665577f, -4.7588024f, -4.9072819f,
       0.1474229f,  -0.4184086f, 0.4625337f,  -3.5116837f, -4.7013431f, 0.9628565f,  1.5897862f,  2.5092015f,
       -2.4829793f, 1.5925716f,  0.7467853f,  0.9404737f,  0.1344972f,  -4.0399399f, -7.0324416f, -1.1082838f},
      {0.0672692f,  -1.8215299f, 0.9317226f,  -0.1118390f, -0.0210081f, -0.1158308f, -0.1588371f, -0.5993342f,
       -0.0552052f, -0.6596020f, -2.4174945f, 0.4521404f,  0.0748076f,  1.1302494f,  2.6847038f,  2.9123256f,
       -0.7744809f, -0.0102861f, 0.3012859f,  2.1858046f,  0.0567744f,  -0.1467774f, -1.5169512f, -1.1238531f,
       1.5347416f,  -0.0786939f, -0.7982717f, -0.3709626f, 0.4764512f,  2.8830411f,  -1.0305066f, 1.5912391f},
      {-96.8896027f, -110.0932922f, 1.7139786f,  -3.5610986f, -0.1739078f,  -0.2372156f, -0.0806650f,   -9.9661551f,
       -0.4738050f,  1.9703742f,    0.0694501f,  0.6615219f,  -1.4983059f,  0.2834478f,  -4.0164051f,   -0.7779899f,
       0.9264770f,   0.8245913f,    2.2272582f,  0.0225217f,  -28.0454578f, 4.7136407f,  -116.2788162f, -0.9443747f,
       1.8277310f,   -2.4967177f,   -0.1093290f, 1.9732182f,  -0.1948969f,  -0.4370313f, 1.1528645f,    0.1877431f},
      {-0.0150216f, -0.0760471f, 0.0156394f,  -0.0538266f, 0.0023206f, -0.0750936f, 0.1250031f,  0.1766482f,
       0.0425197f,  -0.0169561f, 0.0823597f,  0.1761020f,  0.1406211f, 0.1385411f,  -0.2778347f, 0.0874152f,
       -0.0145249f, 0.1804823f,  0.0707600f,  -0.0550639f, 0.0279740f, 0.0095946f,  -0.0929903f, 0.0869889f,
       0.0063852f,  2.1987984f,  -0.0780847f, 0.0289536f,  0.1220457f, -0.1296382f, 0.0246468f,  0.1409690f},
      {0.1069568f, -0.1133931f, -0.0668801f, 0.0873873f,  0.0071056f,  0.1307857f,  0.0423961f,  -0.0864282f,
       0.1004335f, -0.1712713f, 0.0430194f,  -0.0988296f, 0.1445337f,  0.1080220f,  -0.0534579f, 0.1264259f,
       0.1741168f, -0.0506565f, -0.1075431f, 0.1255399f,  0.0880678f,  0.0546050f,  -0.0226941f, -0.0730741f,
       0.1123817f, 0.0939575f,  0.1222056f,  -0.1310307f, -0.1451310f, -0.1374254f, -0.1234615f, 0.0454595f},
      {0.1449960f,  0.0234585f,  0.0014571f,  0.1160349f,  0.0096981f,  0.0506663f,  0.1252802f,  -0.0457112f,
       -0.1366963f, -0.1417035f, 0.1511747f,  -0.0851956f, 0.0608477f,  -0.1133519f, -0.1058493f, -0.0694097f,
       -0.1023623f, -0.0747667f, -0.0868260f, 0.1734297f,  -0.0808088f, 0.1544493f,  0.0113274f,  0.0806466f,
       0.0143433f,  -0.0996021f, -0.0418055f, 0.1005961f,  0.1323451f,  0.0567570f,  -0.1680743f, 0.1104019f},
      {0.0623240f, -0.0462543f, -0.0267306f, 0.1743786f,  -0.0749182f, -0.1661601f, -0.0879796f, 0.0990261f,
       0.0625967f, -0.1336493f, 0.0062609f,  -0.0906606f, -0.0636083f, 0.0760358f,  -0.0673060f, -0.0673055f,
       0.0831008f, -0.1686917f, -0.0900668f, -0.0640369f, -0.0877423f, -0.1392315f, 0.0719092f,  -0.0686926f,
       0.0569010f, 0.0349250f,  -0.0326366f, -0.1047096f, 0.0537910f,  0.0240142f,  -0.0991385f, -0.0669658f},
  };

  HOST_DEVICE_CONSTANT const float bias_output_layer[3] = {1.8469625f, -0.6955632f, 1.0097370f};

  HOST_DEVICE_CONSTANT const float wgtT_output_layer[32][3] = {
      {4.4991860f, 3.9375098f, 4.3399482f},    {7.0075283f, 6.2646666f, 6.5597839f},
      {14.9951820f, 13.9117212f, 13.7142115f}, {0.1159570f, 0.9303166f, 0.4673160f},
      {-0.0951064f, 0.0124951f, -0.0565012f},  {0.0704869f, 0.0780043f, 0.0748005f},
      {-0.0566094f, -0.0223201f, 0.0877503f},  {4.8081760f, 5.4372506f, 5.6071458f},
      {2.7564356f, 2.1306205f, 2.5075164f},    {1.2740899f, 1.4245074f, 1.6338239f},
      {1.1767358f, 0.8134174f, 0.8300844f},    {0.9727517f, 1.4625394f, 1.4611090f},
      {1.2035364f, 2.0361142f, 1.6232803f},    {0.3619271f, 0.8604651f, 0.9210567f},
      {2.1231093f, 1.3987641f, 1.8802185f},    {1.4671221f, 0.7151363f, 1.4123646f},
      {0.1031336f, -0.1778264f, 0.3651159f},   {2.0840816f, 1.7001345f, 1.7705766f},
      {1.6058908f, 1.6014138f, 1.4864937f},    {0.7465010f, 0.1980971f, 0.5590635f},
      {8.7335138f, 8.1873512f, 8.4657879f},    {0.8997872f, 1.5820351f, 1.0778383f},
      {2.7012672f, 3.5263872f, 3.2999623f},    {2.3490293f, 2.8839958f, 2.9289739f},
      {0.8576769f, 0.4587515f, 0.6465796f},    {6.3581505f, 5.7235312f, 5.8292871f},
      {4.2755437f, 3.9910579f, 3.8747020f},    {1.0172262f, 1.1198938f, 1.3209013f},
      {3.3215942f, 3.0770521f, 2.9586360f},    {4.9479060f, 4.3851423f, 4.8799119f},
      {3.7227767f, 3.8304873f, 4.0933967f},    {-0.2624047f, -0.9001565f, -0.3679019f},
  };

}  // namespace ALPAKA_ACCELERATOR_NAMESPACE::lst::t3dnn

#endif