#ifndef RecoTracker_LSTCore_src_alpaka_T5EmbedNetworkWeights_h
#define RecoTracker_LSTCore_src_alpaka_T5EmbedNetworkWeights_h

#include <alpaka/alpaka.hpp>

#include "FWCore/Utilities/interface/HostDeviceConstant.h"

namespace ALPAKA_ACCELERATOR_NAMESPACE::lst::dnn::t5embdnn {

// Time: 2025-07-01 17:18:13
// T5 embedding model weights and biases:
HOST_DEVICE_CONSTANT float bias_fc1[32] = {
-0.3529922f, 0.4263956f, -0.0008983f, 0.0899692f, -0.0164867f, 0.6813513f, 0.2767311f, 0.3990766f, 0.2952092f, 0.3799611f, 0.6143824f, 0.5035901f, -0.0744580f, 0.1892616f, 0.3934173f, 0.1332346f, 0.0204707f, 0.5937374f, 0.5078803f, 0.4038074f, -0.3437981f, -0.0353072f, 0.4174731f, 0.6457281f, -0.2210853f, 0.2168890f, -0.3969099f, 0.7718004f, 0.7415084f, 0.2299988f, 0.2094716f, 0.1209461f };

HOST_DEVICE_CONSTANT const float wgtT_fc1[30][32] = {
{ -0.0083669f, 0.0076172f, 0.0041264f, 0.0055905f, 0.0011327f, 0.0034482f, 0.0054234f, -0.0040031f, -0.0055082f, 0.0055388f, -0.0196642f, -0.0069607f, 0.0179446f, 0.0026522f, 0.0045610f, -0.0032421f, -0.0130275f, -0.0033801f, -0.0061858f, 0.0051325f, -0.0109537f, -0.0018267f, 0.0073948f, 0.0052305f, -0.0175516f, -0.0027379f, -0.0014264f, 0.0092593f, 0.0129504f, -0.0021556f, 0.0108109f, 0.0034333f },
{ -0.0000449f, 0.0113856f, -0.0020794f, 0.0129705f, -0.0061983f, 0.0061728f, -0.0011555f, -0.0009443f, 0.0071892f, -0.0004171f, -0.0017985f, 0.0195179f, 0.0146329f, -0.0002659f, 0.0138423f, -0.0037647f, -0.0056528f, -0.0013589f, 0.0056092f, 0.0020264f, 0.0094073f, -0.0116017f, -0.0013616f, 0.0108995f, 0.0568977f, -0.0000248f, 0.0041006f, -0.0017226f, 0.0009746f, 0.0016457f, -0.0093651f, 0.0140071f },
{ -0.0017066f, -0.0004410f, 0.0038471f, 0.0088926f, 0.0008993f, 0.0026448f, -0.0045950f, -0.0093490f, 0.0009548f, 0.0050942f, 0.0021695f, 0.0030999f, 0.0115359f, 0.0057938f, -0.0143688f, -0.0001480f, -0.0028347f, -0.0045014f, -0.0011916f, -0.0070859f, -0.0012148f, -0.0113299f, -0.0033503f, 0.0011956f, 0.0257967f, 0.0058409f, -0.0065589f, -0.0024506f, 0.0035234f, -0.0078311f, 0.0032744f, -0.0164581f },
{ -0.0965566f, -0.2875752f, -0.4020587f, 0.0128645f, -0.5063182f, -0.5378765f, 0.0220971f, 0.1386200f, -0.4149993f, 0.2538114f, -0.1687056f, -0.3323335f, 0.5159305f, 0.5785915f, -0.1360537f, -1.4006951f, 0.3695980f, -1.0283864f, 0.1178394f, -0.6509159f, 0.3946542f, 0.8855167f, 0.1128489f, -0.9038125f, 0.1016566f, -0.0238417f, 0.5068649f, -0.8854861f, -1.5935564f, 0.5398715f, 0.4394623f, -0.3713078f },
{ 0.6736088f, -0.4532941f, 1.2949404f, -0.0814732f, 1.0703710f, -0.7909837f, 0.7660248f, -0.1168523f, 0.3184097f, -0.1866577f, -0.1163183f, -0.2650339f, -0.3707184f, 0.0305293f, 0.5446035f, 1.6072803f, 0.1142870f, 0.7122539f, -0.1420395f, 1.5986830f, 1.3019898f, -0.0178644f, -1.7234992f, -0.4811478f, -0.1094508f, 0.6312741f, 0.4655794f, -1.0820894f, -1.0595109f, -0.3525010f, 0.1341914f, -0.6037224f },
{ -0.6289666f, -0.2740986f, -3.6690314f, -0.0507842f, 0.8319556f, 1.0319401f, -0.6414897f, -0.5280542f, 0.2829801f, 0.5334061f, 0.3656137f, -0.8930730f, -2.6963205f, 1.3667427f, -0.1209706f, 1.9208454f, 0.0034199f, -1.8492602f, -0.5997277f, 0.9148985f, -1.5851842f, -0.7997437f, 0.2915358f, -0.9512767f, 0.0746474f, -0.1312114f, 0.7110355f, 2.2865148f, -0.3884029f, 0.2892743f, -0.4853553f, 0.1542067f },
{ 0.7869174f, -1.7217121f, 0.4709696f, 0.9817677f, 0.0855133f, -0.1306318f, 1.8488599f, 0.3483596f, -2.5922098f, -2.2862833f, 1.8416463f, 0.0572827f, -0.3997206f, -0.5981470f, -0.4584241f, 0.1193663f, 2.4530497f, 0.6133031f, 2.2677946f, -0.5159429f, -0.1791710f, -3.8757713f, 1.8412820f, -0.7276384f, 0.0660634f, 0.7450850f, 1.8485624f, -0.2611068f, -0.2607147f, 1.4475853f, 0.2239405f, -1.9783252f },
{ 0.4294237f, -0.6331180f, -1.2878605f, 0.0682800f, -0.8612857f, -0.7158011f, -0.5987805f, -0.2817141f, -0.5071917f, 0.0747818f, -0.4967491f, -1.6875651f, 0.5998217f, -0.2954861f, -0.6116566f, 1.4394391f, -1.7923265f, -1.1194489f, 0.0360157f, -1.5468106f, 0.8653960f, -1.0104936f, -0.6904931f, -1.2166483f, -0.1938543f, 0.1126755f, 0.3359831f, -0.5897623f, -2.4426472f, -0.2039347f, 0.4427235f, 0.0178746f },
{ 2.0130348f, -1.1565455f, 1.1038293f, 0.0933556f, 1.8773953f, -0.2876750f, 0.5018021f, -0.6177157f, -0.1717933f, -0.1702786f, -0.0923212f, -0.0503555f, -0.1838238f, -1.3851532f, 0.0442030f, -2.9626393f, -0.2893437f, -1.3298124f, -1.6287353f, 1.5619122f, 1.1248685f, -1.9875799f, -1.2679312f, -0.4320605f, -0.2157265f, -0.9552572f, 0.8128747f, -1.2479056f, -0.6974048f, -0.4928210f, -0.5424942f, -0.0085805f },
{ 0.7285245f, -0.4995429f, 2.7626705f, -0.0088432f, -1.6492271f, -0.3065877f, -0.2853064f, 0.5850376f, -1.4831152f, 0.8402688f, 0.6084756f, 0.8966025f, 1.3694662f, 5.6769347f, 0.7910734f, -0.8550317f, 2.3039670f, 0.4180064f, 0.1127485f, -4.1692548f, 2.5295358f, 0.3867173f, -0.8620043f, 3.2439542f, -0.0880683f, -1.2663028f, -0.8889352f, -1.3396934f, -0.7303388f, -1.3399001f, 1.4740825f, -0.3714043f },
{ 1.0876849f, 0.7436579f, 0.5647892f, -5.9920216f, -0.5115811f, 1.0503681f, 2.4588375f, -2.9709435f, -4.9195809f, -4.2167935f, 3.1477871f, -2.5026271f, -0.3126956f, 0.2707143f, 0.7680471f, -0.1519593f, 2.1148884f, 0.3502206f, 0.8590885f, -0.1563149f, -0.7239065f, -3.2881920f, 0.3352759f, -0.8702010f, 0.1167092f, -3.4123554f, 2.2640128f, -0.9579327f, 0.2861610f, 3.4424317f, 1.6388806f, -2.2779541f },
{ 1.2042837f, -0.5252427f, -1.1779205f, 0.0603710f, -0.7560982f, -0.9593114f, -0.8621919f, 0.5669299f, -1.1385252f, 0.0362421f, -0.4276764f, -1.5625929f, -0.7488168f, 0.3641993f, -1.5883871f, 1.0145501f, -0.8166614f, -2.5671086f, -0.2398688f, -2.1076379f, 1.3814253f, -0.5614155f, -0.0332400f, -1.4387192f, -0.2137895f, -0.5194679f, -0.2014585f, -2.3578203f, -1.6905258f, 0.1372925f, 0.8949528f, 0.5978193f },
{ 1.6133963f, -0.5569075f, 1.1089525f, 0.3057279f, 2.5295825f, -0.1006883f, -0.1627904f, -0.7765731f, -0.4231909f, -1.5504731f, -0.4212122f, -0.1086522f, -0.5684393f, -3.1030636f, -0.2726474f, -2.0009871f, -0.0708313f, -1.0048699f, -2.6479104f, 1.3690147f, 1.6924376f, -0.9651189f, -0.9737065f, -0.5959670f, -0.1978795f, -1.5075988f, 1.6993136f, -0.6331320f, -1.0941077f, -1.4392093f, -1.1135389f, 0.9096952f },
{ 1.1046695f, 0.2770925f, 2.4525249f, 0.0020420f, 0.1114444f, -1.6819862f, 1.0309798f, 0.1573723f, -0.1929128f, 0.9821932f, -0.2029516f, 0.8839326f, 1.8373659f, -0.9192945f, -4.3616643f, -0.5049868f, -0.8520619f, -1.3379872f, 2.6816201f, 2.8962779f, -1.4057043f, 0.7882878f, 1.4301429f, 0.4670786f, 0.1070541f, -0.4420652f, -1.2186568f, -0.8942046f, 1.8852386f, -0.5119354f, 1.7242078f, -0.7875082f },
{ -0.8096497f, 2.4289477f, -0.1263338f, -11.1312551f, 0.0722693f, 1.4338381f, 3.1992292f, -2.4074566f, -2.9356525f, -2.4995713f, 2.6291227f, -3.1122880f, -0.0105406f, 0.1129942f, -0.1478749f, -0.0167808f, -0.6941001f, 0.1521381f, -0.0722664f, 1.0114397f, 0.1776531f, -0.5914325f, -1.5008138f, 0.3508302f, 0.0982312f, -3.9261618f, 0.3105959f, -1.6943411f, -0.1614652f, 2.2979167f, 2.8796585f, -0.2410035f },
{ 1.5512896f, -0.1910071f, -0.9254641f, -0.1620093f, -0.6906547f, -0.0604721f, -0.4636750f, 0.1644113f, -1.3039238f, 0.3531663f, -0.1732702f, -0.4862473f, -0.9833553f, -0.3398699f, -1.1942031f, 0.9105672f, -0.2126220f, -1.1940800f, -0.9675223f, -1.5615185f, 0.7784440f, -0.0931850f, 0.1434661f, -1.2928976f, 0.1075694f, -0.3669975f, -0.3160698f, -2.5996485f, -1.4419928f, 0.1874920f, 0.7631835f, 0.6656129f },
{ -0.2246475f, 0.5856541f, 0.4815222f, 0.6129512f, 1.9867748f, -0.5244578f, -0.4816285f, -0.7703627f, -0.3718119f, -1.3754641f, -0.0914906f, 0.2711811f, -0.0746769f, -1.5975143f, 0.2789843f, -0.6629879f, 0.8637051f, -0.5309930f, -2.0792551f, 0.4938036f, 1.3354714f, 0.1534102f, -0.7474145f, -0.2687527f, -0.1774939f, -0.7290837f, 0.8576909f, 0.1945708f, -1.3878052f, -1.0941385f, -0.8335536f, 0.1612265f },
{ 0.2545862f, 0.6965864f, 0.4274892f, 0.1323260f, 0.8818976f, -0.9076101f, 0.7625893f, -0.1239807f, -0.0651661f, 0.8151427f, -0.3401829f, 0.6620681f, 1.8927196f, -1.0546269f, -1.1087472f, 0.0317153f, -0.2250982f, -0.8114849f, -0.0490224f, 0.4300053f, -0.9803876f, -0.1333728f, 0.1836492f, -0.7293222f, -0.1562539f, -0.7745720f, -0.4145350f, -0.5044406f, 0.8366098f, -0.4315989f, 0.8172040f, -0.4157362f },
{ -0.6642991f, 0.7803371f, -0.1616436f, -6.0157332f, 0.3994740f, 0.4739363f, 2.0514140f, -1.2196205f, -1.6931372f, -0.3386242f, 0.6632309f, -1.3962721f, 0.1227596f, -0.2618509f, -0.5873338f, -0.0056431f, -1.4528433f, -0.4855442f, -0.2786454f, 0.8327147f, 0.4576457f, 1.1565202f, -1.4351741f, 0.7048683f, 0.0914012f, -1.3308244f, -0.5837982f, -0.5168903f, -0.3415926f, 0.7585075f, 2.0326426f, 0.2384617f },
{ 0.5680104f, -0.1392871f, -0.4130551f, -0.2503318f, -0.4830402f, 0.0964350f, -0.0211647f, -0.2114631f, -0.6330736f, 0.2143707f, -0.0257911f, 0.2083374f, -0.7299200f, 0.0604195f, -0.4466325f, 0.0423453f, 0.3333935f, -0.6593793f, -0.3237009f, -1.5869465f, 0.3851867f, 0.5452934f, 0.0184711f, -0.5710464f, 0.1161026f, -0.1716539f, 0.0115975f, -1.1468982f, -0.3902205f, -0.1200953f, 0.4395214f, 0.2316426f },
{ -0.1905056f, 0.0229859f, 0.2338650f, 0.3601225f, 1.1098057f, -0.3782914f, 0.1534189f, -0.1840241f, 0.0049000f, -0.3468716f, 0.0489256f, 0.5006954f, 0.5907014f, -1.3115020f, 0.5283857f, -0.2621640f, 1.3568841f, -0.2764837f, -0.5416634f, 0.4713285f, 0.7893035f, 0.3466663f, -0.1424764f, -0.2263882f, 0.0691106f, -0.5135763f, 0.1366401f, -0.5434595f, -0.4060876f, -0.3041940f, -0.1719118f, -0.0923832f },
{ 2.6776159f, -1.1030692f, 1.7604386f, -4.7170205f, -1.7549385f, -4.6050391f, 0.3596740f, -1.3201982f, 3.6042533f, 1.8705025f, 2.0732365f, -4.3411441f, 11.5297318f, -6.0680628f, 6.1513853f, 2.6560779f, -0.1640700f, -0.7963123f, -1.4570502f, -1.0093358f, -3.1757088f, -4.7846446f, 5.7827172f, 4.7808609f, -0.0132468f, 6.4656587f, -4.3012886f, 0.2495263f, 4.4979639f, 6.4066501f, 1.2052145f, -1.5299363f },
{ -13.2447271f, -13.3897476f, 10.3660059f, -6.6506228f, -2.7083595f, -22.9323902f, -7.9875684f, 3.1231670f, -6.0690818f, -0.0823603f, 0.4734680f, -4.1768165f, -10.0368204f, 4.0485129f, 4.5878987f, -0.9569030f, -10.0949335f, 4.4240193f, -0.8303014f, -3.3182333f, -5.3317714f, -5.0102744f, -2.5091281f, 4.8815069f, 0.0178120f, -5.5965729f, 13.5258818f, 1.5059955f, 5.7700329f, -1.8963575f, -3.8458097f, 17.9733734f },
{ -5.3578315f, -3.8906202f, 2.1661284f, -1.8741009f, -1.4407353f, -6.1889114f, -6.0334492f, -0.4638324f, -1.5857698f, -1.6711890f, 1.2108692f, -1.4964020f, -5.1548100f, 3.0685031f, 2.9143498f, -0.7419977f, 2.0858364f, 2.4507146f, 1.2855810f, 0.8699706f, -1.9962051f, -1.3661374f, -1.5524300f, 1.4850918f, 0.1306709f, -1.7579042f, 5.9518042f, 1.9310261f, -2.0325096f, -0.0528497f, -3.6542029f, 1.8406065f },
{ -0.3158069f, 0.3747961f, 0.2272266f, 0.1006351f, -0.0543804f, 0.3422088f, -0.0636071f, 0.4366923f, 0.2783245f, 0.1775088f, 0.3498383f, 0.3601216f, -1.0036734f, 0.0555185f, 0.1454696f, 0.0234262f, -0.1251989f, 0.3051954f, 0.2283178f, 0.1155539f, -0.4270633f, -0.0879400f, 0.3736157f, 0.6859966f, -0.1459015f, 0.1910558f, -0.1001516f, 0.6230686f, 0.5969039f, 0.1831774f, 0.0557696f, -0.0595750f },
{ -0.2628309f, 0.2709549f, 0.1348800f, 0.0835721f, 0.0728322f, 0.2069925f, 0.1561159f, 0.3341144f, 0.3390369f, 0.2651140f, 0.3166334f, 0.4146430f, 0.1531307f, 0.2276187f, -0.1086412f, 0.1498506f, 0.2123112f, 0.3505970f, 0.2001630f, -0.1159920f, -0.4525625f, 0.1999206f, 0.3046891f, 0.5810847f, -0.0944418f, 0.1956110f, -0.4883862f, 0.5531157f, 0.6201554f, 0.1931124f, 0.1419786f, -0.2433351f },
{ -0.2374625f, 0.4629765f, 0.1722227f, 0.0761996f, 0.0129846f, 0.3326473f, -0.0728879f, 0.3519129f, 0.1985247f, 0.3697345f, 0.2600164f, 0.3767701f, 0.0337966f, 0.1626473f, 0.1353833f, 0.1181459f, -0.1580154f, 0.2850000f, 0.1884618f, 0.1182483f, -0.4450019f, -0.0848162f, 0.3388350f, 0.6618768f, 0.0874665f, 0.1308823f, -0.0242567f, 0.5476458f, 0.6042616f, 0.2641697f, 0.1263358f, 0.0137621f },
{ -0.0900272f, -0.0097634f, -0.0026581f, -0.1142492f, -0.0055436f, 0.0363095f, -0.0458399f, -0.1447852f, -0.0681195f, -0.1036722f, -0.0905125f, 0.0472937f, -1.1685685f, -0.0911051f, 0.0684464f, -0.0383429f, -0.0655283f, -0.0084938f, -0.1390817f, 0.0662843f, -0.0340688f, 0.0443428f, -0.1019108f, -0.0963226f, -0.1011542f, 0.0388797f, 0.0764104f, -0.0459637f, 0.0059211f, -0.0687332f, -0.1046454f, -0.0065609f },
{ -0.1008989f, 0.0383994f, -0.0553220f, -0.0897217f, 0.0682694f, -0.0171096f, 0.0001111f, -0.1112096f, -0.0395919f, -0.0517208f, -0.1087539f, 0.0168713f, 0.4379056f, -0.0911771f, 0.0342737f, -0.0475175f, -0.0085104f, -0.0127060f, -0.1588045f, 0.0259304f, -0.0328441f, 0.0203574f, -0.1022670f, -0.1115831f, -0.1170968f, 0.0046395f, -0.0098969f, -0.0422999f, -0.0669315f, -0.1095507f, 0.0137969f, 0.0181575f },
{ -0.0468521f, 0.0276637f, -0.0552027f, -0.0872310f, 0.0636882f, 0.0283192f, -0.0811495f, -0.1216732f, -0.1473889f, -0.0424613f, -0.1331738f, 0.0148060f, 0.0653250f, -0.1041850f, 0.0228498f, -0.0230780f, -0.0977169f, -0.0282083f, -0.1793310f, 0.0232965f, -0.0464164f, 0.0444580f, -0.1140805f, -0.0662207f, 0.1257616f, -0.0258873f, 0.0981619f, -0.0649134f, -0.0396815f, -0.0038881f, -0.0172021f, 0.1388282f },
};

HOST_DEVICE_CONSTANT float bias_fc2[32] = {
0.3529029f, 0.1080701f, -0.1886915f, 0.4488891f, 0.5088643f, 0.6006479f, -0.0887114f, 0.1755739f, 0.1788816f, 0.2557022f, -0.1705128f, -0.1189882f, 0.1222651f, 0.5836341f, 0.6573780f, 0.2772846f, 0.2385812f, -0.0972483f, 0.0639048f, -0.0704962f, 0.3526671f, -0.2881110f, 1.0587200f, -0.1027917f, -0.0816620f, -0.2078648f, 0.2494685f, 0.1390116f, 0.9300645f, 0.4973668f, 0.1474934f, 0.3650716f };

HOST_DEVICE_CONSTANT const float wgtT_fc2[32][32] = {
{ 0.0330382f, 0.1980773f, -0.0725664f, 0.4958113f, -0.1593372f, 0.0164687f, -0.8667713f, 0.4332893f, -0.1362605f, -0.3339807f, -0.0134522f, -0.0362258f, 1.4646780f, 0.2953730f, 0.3577442f, -0.1193970f, 1.1571596f, -0.0270765f, -0.8391573f, -0.4703254f, 0.0655530f, -1.7267778f, 0.4027429f, -0.7260278f, -0.1350420f, -0.2576198f, 0.1262408f, 0.5053024f, -0.3686259f, -0.1753474f, -0.3000258f, 0.0538209f },
{ -0.5012827f, 0.2701946f, 0.6051705f, -0.9249039f, -1.1573842f, -0.2179022f, -0.3849309f, -0.1278721f, 0.2250215f, -0.2212868f, -0.0351377f, -0.0994611f, -0.2757771f, -0.0916467f, 0.3116904f, 0.2227573f, 0.2624806f, -0.0756729f, -0.2264051f, 0.0649871f, -0.6576573f, -0.4093783f, 0.1124804f, 0.6038552f, -0.1172084f, 0.1198081f, 0.4809833f, 0.2172415f, -0.0585090f, -0.8869897f, -0.1052179f, 0.2384564f },
{ 0.2140654f, 0.4273479f, 0.8485613f, 0.4050615f, 0.1936509f, -0.6591703f, 0.7062150f, 0.9576945f, 0.7454673f, 0.1457398f, 0.1111234f, -0.0795789f, -1.6396726f, -0.0558741f, -0.4177573f, -0.6362010f, -0.3031896f, -0.1040292f, 0.6683357f, -0.3220932f, 0.3114972f, -0.1877777f, -0.8826789f, 1.5771970f, -0.1751705f, 0.0228423f, -0.1175803f, 0.1995592f, 0.3870656f, -0.8054550f, 0.4023131f, -0.5494660f },
{ -0.0130289f, -0.4556474f, -2.0657575f, -0.3869313f, -0.1240795f, -0.3090841f, 0.4459634f, 0.0742535f, -2.0021031f, -2.0572679f, -0.0820233f, 0.0098476f, -0.5686058f, 0.0167949f, -3.4890678f, -1.6627884f, -0.2636652f, -0.0568420f, -0.2145027f, -0.0208658f, -0.2130379f, -2.5255535f, 0.0524691f, 0.6334498f, -0.1109361f, -0.1501688f, -5.9751039f, 0.0274330f, -0.3420885f, 0.1110218f, -2.1145866f, -2.6612818f },
{ 0.8752537f, 1.4406228f, 1.3629479f, -1.1662296f, 0.5214422f, -0.4072045f, -0.4325944f, 0.8869086f, 0.3054810f, 0.1223048f, -0.0728815f, -0.2052931f, 0.3326505f, 0.0880778f, -0.0336698f, 0.4608302f, -1.3367836f, -0.0849328f, -0.0641742f, 0.2943721f, 0.2311019f, -0.2214727f, -0.9727737f, 0.5218520f, -0.2394035f, -0.1712022f, 0.2055879f, -1.9745098f, -1.0255985f, -0.3151709f, 0.2277919f, -0.3367391f },
{ -0.8989875f, 0.1155779f, 1.6906095f, 0.1037428f, -0.7742863f, -0.2183966f, -0.2082379f, 0.3440321f, 0.7927810f, -0.1762528f, 0.0025273f, -0.0425379f, -0.1037931f, -0.6437522f, 1.0199705f, 1.6580193f, -0.3953378f, 0.1471774f, -0.5879030f, -0.3499308f, -0.4831732f, -1.4668612f, 0.3853884f, 2.0727139f, -0.0725632f, -0.1805439f, 1.5840499f, -0.3676202f, -0.0560913f, -0.8276848f, -0.2622789f, 1.5891834f },
{ -0.7283838f, -0.1586205f, 0.4994277f, -0.6838632f, -1.4932727f, -0.0269358f, -0.4492750f, 0.4951378f, 0.4105100f, 0.0719707f, -0.1724275f, -0.0039159f, 0.3520692f, 0.0132409f, 0.5696621f, -0.1152323f, 0.2962684f, 0.0271625f, -1.1474969f, -0.2126669f, -1.5030268f, -0.2915854f, -0.0026091f, 0.1455000f, 0.0341740f, 0.1096081f, 0.7077486f, -0.0929421f, -0.2684278f, -1.0883368f, 0.1742056f, -0.0240144f },
{ -0.1528843f, 0.0615556f, -0.0570935f, -0.2412031f, 0.3049577f, 0.4644902f, 0.3019152f, -0.3189491f, -0.2178173f, -0.3505647f, 0.0029658f, -0.1220185f, 0.2683125f, 0.2447875f, -0.6621031f, -0.2566415f, 0.2771522f, 0.1441971f, 0.9530901f, 0.9327309f, 0.3368399f, -0.1289387f, 0.6450481f, -0.3641042f, 0.0273236f, -0.0595070f, -0.6559952f, 0.4742650f, -0.0670294f, 0.1075895f, -0.2615572f, -0.0159165f },
{ 0.8013957f, -0.4034683f, -2.0949194f, 0.3737676f, 0.4598621f, 0.1070293f, -1.6229868f, 0.5279135f, -1.7840840f, -0.7941349f, -0.1590505f, 0.0138605f, -0.2275437f, 0.0945969f, -1.1958718f, -0.3738639f, -0.0534642f, 0.0254979f, -1.4348873f, -1.7068450f, -0.2168342f, 0.6966569f, -0.1355141f, -0.4929724f, 0.0062885f, -0.1074581f, -2.7606988f, -0.0456326f, -0.0428752f, 0.0722959f, 2.0247679f, -2.2098997f },
{ 0.2697414f, -0.4301346f, 0.2420444f, 0.8612655f, 0.3440011f, 0.6327278f, -0.2211063f, 0.1779783f, -0.2569715f, -0.1257218f, -0.0041804f, 0.0113939f, -0.4351385f, 0.7089828f, -0.6978871f, -0.2005793f, 0.2793574f, 0.0167211f, -0.6059165f, -0.1789425f, 0.3008049f, 0.6190045f, 0.3911118f, -0.0401838f, 0.0191270f, -0.1381677f, -0.6440675f, 0.2118834f, 0.1794522f, 0.7487888f, 0.0040808f, -0.3453821f },
{ -0.7253602f, 0.2032938f, 0.1292441f, -0.5312466f, -0.4167934f, -0.5710044f, 0.7068074f, 0.3235356f, 0.3398862f, 0.3965079f, -0.0271776f, 0.1241087f, 0.1465156f, -0.8041907f, 0.5024322f, -0.1304034f, 0.5136650f, 0.0726718f, 0.5527482f, 0.2953124f, -0.2070967f, -0.2682032f, 0.1734290f, -0.2512781f, 0.0733383f, 0.0525004f, 0.3412413f, 0.2633000f, 0.1180041f, -0.1697347f, 0.1905133f, 0.0429152f },
{ 0.3430749f, 1.3784863f, -0.0701628f, 0.3327846f, 0.3486347f, 0.1178279f, 0.1509944f, -0.1840085f, -0.2737299f, 0.6327347f, 0.0001469f, -0.0649424f, -0.4811870f, 0.0971315f, -0.2432460f, 0.9001553f, 0.9414147f, 0.0096115f, 0.4668401f, -0.7457841f, 0.3184120f, 0.1974680f, -0.0093248f, -0.5086408f, -0.2020363f, -0.0961208f, 0.1790837f, 0.1506169f, 0.2243387f, 0.0901413f, -0.7070500f, 0.5777328f },
{ -0.0443352f, -0.8082698f, 0.1013782f, 0.5330045f, -0.3931396f, 0.2139560f, -1.3895229f, 0.1990952f, -0.2931641f, -0.3918070f, -0.1610026f, -0.1614799f, 0.0687307f, 0.0783454f, 0.3176873f, 0.0270215f, 0.5760680f, -0.1628035f, 0.0808772f, -0.4549644f, -0.1339656f, -3.0219860f, -0.2652972f, -1.2884688f, -0.1403598f, -0.0353384f, -0.0734724f, -0.0094335f, -0.2322413f, -0.2229022f, 0.3870486f, -0.4276289f },
{ -0.5388738f, -0.0187977f, -0.0669199f, 0.7246446f, 0.1538342f, -0.0582718f, 0.1397521f, -0.4534278f, -0.2290721f, 0.3292280f, -0.2071954f, 0.1249019f, -0.7337586f, 0.0430469f, 0.1463710f, -0.2138570f, -0.1289784f, -0.1206523f, -0.8316602f, 0.8347196f, 1.1595526f, 0.7668439f, 0.7719724f, 0.0520043f, -0.0055530f, -0.0599329f, 0.1303796f, -1.2014769f, 0.8270823f, -0.0870765f, 0.0726198f, 0.5980353f },
{ -0.0560759f, 0.5584608f, -0.2989854f, 0.7164410f, -0.0184786f, 0.5103474f, 0.6560394f, 0.8088078f, 0.2368344f, 0.4115007f, 0.1050700f, -0.0253433f, 0.6079127f, 0.4486931f, 0.2736947f, -0.0230613f, -1.3973911f, -0.0652300f, 0.5727466f, 0.2753819f, 0.2240518f, 1.1304628f, 0.0347277f, 0.0074123f, 0.0754955f, -0.1630514f, 0.3854924f, -1.1700342f, 0.4633383f, -0.1379042f, -0.1135098f, 0.4591942f },
{ -0.2947167f, -0.9332681f, -0.1723482f, 0.0691025f, 0.6658632f, 0.2514463f, -0.2124217f, 0.0651275f, -0.1047469f, 0.0817456f, 0.1184575f, -0.1003202f, 0.5679175f, -1.0470057f, -0.0471014f, -0.1778072f, -1.3719091f, -0.0236225f, -1.8792610f, -0.5917565f, 0.9371613f, -0.5147761f, 0.6697215f, -0.6390134f, -0.0690393f, -0.0486211f, -0.4314754f, -0.7537079f, -0.2434187f, -0.5629766f, 0.2523572f, -0.1651271f },
{ -0.4099258f, 0.3737686f, -0.7906678f, 0.0090498f, -0.5871469f, 0.3037918f, -0.2117478f, 0.2157637f, -0.0634111f, -0.3226375f, -0.2008302f, -0.1652405f, -0.0579622f, 0.3026977f, 0.0479809f, -0.2444523f, -0.2150905f, 0.0473292f, -1.1006538f, -1.0210608f, -0.3200530f, -2.2131817f, -0.2489933f, -0.1611691f, -0.0942179f, 0.1036622f, -0.1726001f, -0.0475227f, 0.2589387f, 0.3877588f, 0.0399848f, -0.2733119f },
{ 0.4731492f, 0.9793680f, 0.2306020f, -0.0598166f, 0.8062452f, 0.2414174f, -0.4813192f, 0.8571700f, 0.0179257f, -0.2801870f, 0.0226135f, 0.0414345f, 0.6783939f, -0.6756194f, 0.4365212f, 0.2770704f, -0.1655705f, 0.0497150f, -0.2436052f, 0.0361393f, -0.0413544f, -0.6435731f, 0.0115769f, -0.8212792f, -0.1909405f, -0.1936939f, 0.3193941f, 0.8319684f, -0.0652288f, 1.0448111f, -0.2169615f, 0.1392456f },
{ 0.3085402f, -0.2228181f, -0.2034375f, -0.0812279f, 1.2588274f, -0.6662983f, 0.3323683f, 0.0693893f, 0.5088950f, -0.3067887f, -0.1615007f, -0.1686012f, -0.4473816f, -1.0878080f, 0.2338850f, 0.2264722f, 0.3235060f, 0.1204422f, -1.0702817f, 0.0724938f, 0.4691013f, -1.6580647f, 0.8249393f, -1.7487211f, -0.1064258f, -0.0933958f, -0.0623224f, -0.3596371f, -0.0706746f, 1.2389957f, -0.0693050f, -0.2350766f },
{ -0.6902092f, 0.9556490f, -0.5820111f, 0.4144492f, -0.7283353f, 0.4179221f, 0.3901444f, 0.5214314f, -0.0652705f, -0.2383366f, -0.0025512f, -0.0037090f, 0.1166219f, 0.3300456f, 0.4978343f, 0.4065970f, 1.0990362f, 0.0131129f, -0.7427641f, -0.4153106f, -0.4385405f, 0.4985681f, 0.1377956f, -0.1204694f, -0.1362707f, -0.2257423f, 0.4481556f, 0.4804707f, -0.7897690f, 0.7883037f, -0.6807804f, 1.1753274f },
{ -0.2038559f, 0.1904484f, 0.3689592f, -0.5832306f, 0.0486403f, -0.1507440f, -0.5912263f, -0.6125333f, -0.4855541f, 0.1010629f, 0.1294808f, 0.0639474f, -1.3495113f, -0.4885229f, -0.0821145f, 0.5894837f, -2.3859527f, -0.0603327f, -0.3474330f, -1.0764115f, 0.0664539f, 1.1787659f, 0.9462795f, -0.7837128f, 0.0490882f, -0.1884711f, 0.1014595f, -0.6706229f, -0.3800140f, -0.2110080f, -0.2598731f, 0.4594986f },
{ 0.3799345f, -0.0826314f, 0.5246860f, 1.0190585f, -0.0670580f, 0.4263017f, -1.0138623f, 0.0704916f, -0.1537340f, 0.1447991f, 0.1064311f, -0.1996300f, 0.2465144f, 0.4523359f, 0.2358668f, 0.5657644f, 0.1412203f, -0.1456402f, -0.2503113f, 0.2662427f, 0.0872530f, 3.0724201f, 0.0595764f, 1.0969204f, -0.1076061f, 0.1003399f, 0.3421869f, 0.1354620f, 0.0930477f, -0.1229756f, -0.1475104f, -0.2287668f },
{ 0.3717857f, 0.4418432f, -0.2001025f, -0.1693581f, -0.2833917f, 0.3156903f, -1.1325129f, 0.0542663f, -0.7396326f, -0.2052417f, -0.1536317f, -0.1654220f, 1.2685008f, 0.5688185f, -0.3875600f, -0.4016489f, 0.6185404f, -0.1419432f, 1.7197478f, -1.7852584f, -0.4884630f, 0.9882745f, 0.0144707f, -0.9519866f, -0.2483720f, -0.0512416f, -0.3489930f, 0.1140660f, 0.8488836f, 0.2682984f, -0.5420845f, -0.6206272f },
{ 0.5178499f, 0.5759150f, 0.2663267f, 0.1365868f, 0.1824571f, -0.1667977f, -0.2360255f, 1.1708386f, 0.0417741f, 0.1049865f, 0.0685065f, -0.1774885f, 1.6741022f, 0.1435270f, 0.0258046f, -0.4136806f, 0.3701340f, -0.1263469f, -0.7638485f, 0.8911296f, 0.2507214f, 0.7856195f, -0.3557431f, -0.4975986f, -0.0740455f, 0.0975137f, -0.0725597f, 0.9774405f, 1.0999204f, -0.2631794f, 0.6481895f, -0.0221586f },
{ -0.0807770f, 0.0669253f, -0.0968560f, -0.0314945f, -0.0103727f, 0.0566437f, 0.1496250f, -0.1123276f, -0.0236162f, -0.0542272f, 0.0923335f, 0.1485820f, -0.1016771f, 0.0089739f, -0.1122036f, -0.1318057f, -0.0027672f, 0.0533165f, 0.0753702f, 0.1150229f, 0.1125671f, -0.1518618f, 0.0463024f, -0.0348161f, 0.0128284f, -0.0503016f, 0.1250061f, -0.1551743f, 0.0903051f, 0.0396692f, -0.1685764f, 0.0327985f },
{ 0.1936731f, -0.6249719f, -0.5012894f, 0.0581142f, 0.1246804f, 0.0694071f, 0.0626744f, 0.5698819f, -0.7417942f, -0.1813842f, -0.0252042f, 0.0998559f, 0.2312036f, 0.1833239f, -1.3309450f, 0.1403895f, -0.5804996f, 0.0826823f, -0.1454544f, 0.5120430f, -0.3920076f, -0.8395777f, 0.3856715f, 0.7726927f, -0.1142722f, -0.1333741f, -1.2444440f, -0.2748269f, -0.0659175f, 0.5711821f, 0.1928085f, -0.7323892f },
{ -1.2147779f, 0.2371099f, -0.7008396f, -2.2688944f, 0.7429799f, -0.3907563f, 0.6093169f, -0.1162451f, -0.0514131f, 0.0864931f, 0.1797937f, 0.0110664f, 0.2572912f, -0.4402136f, -0.0956047f, -0.4870654f, 0.2760855f, 0.1340218f, 0.9388059f, -0.3197642f, 1.4888512f, 1.4576584f, -0.4257480f, -0.8274197f, -0.0147055f, -0.1680172f, -0.0773966f, -0.1640138f, -0.1385689f, 0.0865371f, -0.2739832f, 0.5005863f },
{ 0.7087678f, 0.1559696f, 0.4105510f, -0.0746214f, 0.4829254f, -0.5191035f, -0.1945194f, 0.8590456f, 0.1635964f, -0.2248859f, -0.1251885f, 0.1155672f, 0.6522718f, -0.0444327f, -0.2646215f, 0.5510773f, 1.0380212f, -0.0731718f, 0.7820328f, -0.3223107f, -0.1031479f, -0.1312864f, -0.0502795f, -1.8674647f, 0.0027565f, 0.0729468f, -0.1882641f, 0.6476204f, 0.0183603f, -0.1506316f, 1.1932620f, -0.2567369f },
{ -0.2437928f, 0.5749056f, -0.3410283f, -0.0701648f, -0.0742824f, 0.2885627f, 0.4364068f, 0.6828212f, 0.0516592f, 0.6144603f, -0.0444816f, -0.0590972f, 1.7277380f, 0.1434013f, 0.0398174f, 0.5090567f, -2.9000275f, -0.0358443f, 0.8330402f, 1.4744993f, 0.2553456f, 0.1982333f, 0.5088477f, -1.7195799f, -0.2582479f, -0.1968439f, 0.3984709f, -1.3570362f, -0.5330731f, -0.5746612f, 1.0147839f, 0.7181056f },
{ 0.1683709f, 0.0056250f, 0.2050529f, -1.9169204f, 0.3416546f, -0.4944540f, 0.3929299f, -0.0709336f, 0.2955939f, -0.0698874f, -0.1205925f, -0.1716187f, -0.9436026f, -0.5570282f, 0.3228013f, -0.1621337f, -0.3604579f, -0.0920009f, 1.1745399f, -0.1380852f, -0.6088920f, -0.7033698f, 0.3784795f, -0.0740246f, -0.1547874f, 0.0218957f, 0.2214281f, 0.0064442f, -0.0111463f, -0.1656999f, 0.2989275f, -0.2370983f },
{ 0.1770466f, -0.1066401f, -0.0267200f, -0.4629502f, -0.2148955f, -0.7283110f, 0.0905801f, -0.7541234f, 0.0640342f, 0.1542528f, 0.0201034f, 0.0617472f, 0.0884760f, -0.5512848f, 0.4561391f, 0.2356112f, 0.0208528f, -0.0409506f, -1.5352472f, 0.0578670f, -0.2244526f, 0.4527461f, 0.4992989f, 0.0264950f, -0.0277943f, 0.0057739f, 0.3783283f, 0.4743799f, 0.1543746f, -0.5977776f, -0.1267153f, 0.3092119f },
{ -0.0392879f, 0.0952354f, -1.8130826f, -0.8215452f, 0.0478056f, 0.3811980f, 1.3324928f, 0.2312549f, -0.9131985f, 1.2183905f, 0.0542437f, 0.0123205f, -0.0237331f, -0.1384690f, -0.2735978f, -0.7218498f, 0.1269639f, 0.0328147f, 1.2521722f, 1.0055050f, -0.6876490f, 0.1923897f, -0.7554250f, -0.1179739f, -0.2344416f, 0.0853366f, -0.9386635f, 0.0170054f, 0.1588791f, 1.3988284f, -0.4937427f, -0.6840082f },
};

HOST_DEVICE_CONSTANT float bias_fc3[6] = {
-0.1255083f, -0.0368855f, -0.0390035f, -0.2249608f, 0.0821015f, 0.0552480f };

HOST_DEVICE_CONSTANT const float wgtT_fc3[32][6] = {
{ 0.5338871f, 0.0746662f, 0.3923667f, 0.2861055f, 0.6126676f, -0.2769329f },
{ 0.4558498f, -0.2092626f, 0.2786019f, 0.8760833f, 0.2625310f, -0.7598854f },
{ 0.1999595f, -0.1931276f, -0.2175726f, 0.7534642f, 0.0350877f, -0.6112504f },
{ 0.0049356f, 0.0123049f, 0.3403251f, -0.1494823f, -0.0097872f, 0.1036097f },
{ -0.1186200f, -0.1762863f, 0.5922593f, 0.2982713f, -0.4401228f, -0.0914755f },
{ -0.0366977f, 0.1184852f, 0.3360848f, -0.3727421f, 0.0282765f, 0.3390833f },
{ -0.0502342f, 0.1199049f, 0.2149667f, 0.2092431f, -0.1928593f, 0.2721411f },
{ 0.4838704f, -0.0086943f, 0.6222276f, 0.8259236f, 0.2642418f, -0.3714005f },
{ 0.2615235f, -0.1433507f, 0.4306101f, -0.3023421f, 0.4110920f, -0.3418913f },
{ -0.0547531f, -0.1854632f, 0.2592163f, -0.2632722f, -0.0523102f, -0.1969244f },
{ -0.1555950f, -0.0038833f, 0.0597995f, 0.1162329f, -0.0464415f, -0.1221299f },
{ -0.2229121f, -0.0734876f, 0.1141941f, 0.0861012f, 0.1559318f, 0.0406511f },
{ 0.2531444f, -0.0444853f, 0.2921580f, 0.4439355f, 0.1390580f, -0.2711830f },
{ -0.0125377f, 0.0438373f, 0.6054935f, 0.1247114f, -0.1979686f, 0.2018324f },
{ -0.1742976f, -0.1009370f, 0.9617670f, -0.6699514f, -0.2156277f, 0.2441615f },
{ -0.0585959f, -0.0607943f, -0.3556296f, 0.0361106f, -0.0288476f, -0.1276778f },
{ -0.2876821f, 0.0571779f, -0.2715272f, -0.5242334f, -0.1604965f, 0.3307532f },
{ -0.0121256f, -0.0098939f, 0.0781545f, -0.0488333f, -0.0600786f, -0.0332816f },
{ -0.0364722f, 0.1169028f, 0.3243068f, -0.2718749f, -0.0160520f, 0.3205511f },
{ 0.1153753f, 0.0264238f, 0.4611200f, 0.1468254f, 0.0173140f, 0.0342561f },
{ 0.1951976f, 0.2475620f, -0.0558334f, 0.1230341f, 0.2793770f, 0.2306700f },
{ -0.2036418f, -0.1903970f, 0.0890609f, 0.1096286f, -0.3956753f, -0.1394370f },
{ -0.4029230f, 0.1437379f, -0.2204586f, -0.8197361f, -0.2224994f, 0.6120386f },
{ 0.1998886f, -0.0581712f, 0.1433206f, 0.3563568f, 0.1228830f, -0.2695380f },
{ -0.1909038f, -0.0105114f, 0.1034137f, 0.0810293f, 0.0908166f, 0.0121700f },
{ 0.1926803f, 0.1253870f, -0.0969961f, 0.1055240f, -0.1312681f, -0.0826687f },
{ 0.0967306f, 0.6211745f, 0.3983745f, 0.2482713f, 0.0129960f, 1.0313680f },
{ -0.5074169f, 0.1234600f, -0.4588546f, -0.9192300f, -0.2895622f, 0.6241602f },
{ -0.4682374f, 0.1183290f, -0.3616570f, -0.8467054f, -0.2812299f, 0.5993116f },
{ -0.1954672f, 0.1489368f, -0.2689343f, -0.4614445f, -0.0418866f, 0.4038260f },
{ 0.1443421f, -0.0564594f, 0.1843768f, 0.2374255f, 0.0791748f, -0.2049382f },
{ -0.2443853f, -0.2276088f, -0.7455353f, -0.4253587f, -0.0570910f, -0.2960230f },
};

}  // namespace ALPAKA_ACCELERATOR_NAMESPACE::lst::dnn::t5embdnn

#endif
