#ifndef RecoTracker_LSTCore_src_alpaka_T5EmbedNetworkWeights_h
#define RecoTracker_LSTCore_src_alpaka_T5EmbedNetworkWeights_h

#include <alpaka/alpaka.hpp>

#include "FWCore/Utilities/interface/HostDeviceConstant.h"

namespace ALPAKA_ACCELERATOR_NAMESPACE::lst::dnn::t5embdnn {

// Time: 2025-07-07 22:53:02
// T5 embedding model weights and biases:
HOST_DEVICE_CONSTANT float bias_fc1[32] = {
0.1372539f, 0.1472548f, -0.5920231f, 0.3873766f, -0.5293142f, 0.2809769f, 0.2669292f, 0.0933366f, 0.2387136f, 0.0054311f, 0.4644248f, 0.5642483f, 0.5792937f, 0.3353702f, 0.6010313f, 0.0928618f, 0.1715198f, 0.2458590f, 0.4757990f, 0.2265128f, -0.2860444f, -0.0026141f, 0.4503079f, 0.5249752f, -0.2253923f, 0.3655855f, 0.2242121f, 0.1662160f, 0.6078389f, 0.3719080f, 0.3083879f, 0.0367835f };

HOST_DEVICE_CONSTANT const float wgtT_fc1[30][32] = {
{ -0.0032918f, 0.0356811f, -0.0100928f, 0.0062929f, -0.0045106f, 0.0208653f, -0.0000846f, -0.0058012f, -0.0006760f, -0.0171438f, -0.0141774f, 0.0041619f, -0.0039055f, -0.0221042f, 0.0145476f, -0.0067241f, -0.0001953f, 0.0150782f, -0.0093156f, 0.0009717f, -0.0133811f, -0.0033796f, -0.0029318f, -0.0046337f, -0.0094475f, 0.0027672f, 0.0026114f, -0.0094386f, -0.0009859f, 0.0250104f, -0.0090741f, 0.0016278f },
{ -0.0228110f, -0.0202811f, 0.0077145f, -0.0161216f, -0.0021038f, -0.0032497f, 0.0000896f, 0.0059209f, 0.0033926f, 0.0132571f, 0.0288001f, -0.0062106f, 0.0036906f, 0.0024167f, 0.0021346f, -0.0086590f, 0.0042928f, -0.0145600f, 0.0156240f, 0.0000534f, -0.0131993f, -0.0031506f, -0.0003738f, -0.0089193f, 0.0520453f, 0.0048877f, -0.0074019f, 0.0006554f, 0.0017961f, -0.0116604f, -0.0091845f, 0.0095094f },
{ 0.0039610f, 0.0024467f, -0.0157581f, 0.0000821f, 0.0037516f, 0.0122381f, 0.0126759f, -0.0019199f, 0.0003084f, 0.0129705f, 0.0169593f, -0.0057082f, -0.0059309f, 0.0425340f, -0.0046904f, -0.0153260f, 0.0053398f, -0.0065995f, 0.0029940f, 0.0013665f, -0.0031889f, 0.0102957f, -0.0090247f, 0.0021933f, 0.0248431f, 0.0023730f, 0.0090215f, 0.0120298f, 0.0012557f, -0.0109941f, -0.0163985f, 0.0225281f },
{ 0.5407459f, 0.3361165f, 0.8622865f, 0.4123614f, -0.7524020f, -0.0110973f, -0.1620982f, 0.1508955f, 0.0349122f, 0.7664310f, -0.2515614f, -0.5035936f, 0.0703722f, 0.4792981f, 0.7474949f, 0.4332781f, 0.2797198f, 0.5486044f, 0.4376326f, -0.2994921f, 0.1398771f, 0.1244825f, -0.0920083f, 0.0427337f, 0.0959919f, -0.3015859f, -0.0992595f, 0.4171844f, -1.5532063f, 0.1612898f, -0.0750222f, 0.0768263f },
{ -0.2610481f, 0.0971730f, 1.5197244f, -0.0203647f, 0.4443663f, 0.0590082f, 0.3443428f, -0.1036287f, 0.1007336f, -0.8024241f, 0.3926170f, -0.4539479f, -0.7724460f, 0.0143134f, -0.1951310f, 1.0928854f, 0.0113903f, -0.2696228f, -1.9338236f, 1.4140027f, 0.4836595f, 0.9173854f, -1.2199180f, -0.7459359f, -0.1099583f, 0.3184464f, 0.0236177f, -0.4296596f, -0.0509379f, -0.3034408f, -0.4381222f, -0.2517941f },
{ -0.5226603f, -0.6472673f, -2.2385256f, -0.3900182f, 0.2473762f, -0.1937866f, 0.0720140f, 0.1787287f, 0.3619292f, 0.8338225f, -0.4399297f, -0.1153393f, 0.6053918f, 0.0744845f, -0.7785824f, 1.1475862f, 1.5629061f, -0.1719190f, -0.7649357f, 0.3477559f, -2.2602506f, -6.7905855f, 0.5125096f, 0.3922007f, 0.0789655f, 0.2925183f, -0.9220132f, 0.4784777f, -0.0953100f, -0.4395730f, 0.9071882f, 0.1716143f },
{ 0.6893779f, 0.5799688f, -0.3713629f, -0.8890933f, 0.0363360f, -4.2736549f, 3.0279312f, 1.6687160f, -4.3846903f, -1.2330892f, 1.0799835f, -0.1292191f, -0.1857083f, 0.0157185f, -0.8075091f, 0.4599931f, -0.0197375f, 2.2444882f, 0.5533946f, -0.3112313f, -0.5133336f, -0.2918187f, 0.6941568f, 0.0585074f, 0.0425279f, 0.7261881f, 0.0211801f, -0.7619368f, 0.0445494f, 0.0282758f, -0.3042354f, 0.4738840f },
{ 0.4629896f, 0.0538735f, -0.4420604f, -0.0886354f, 0.8531998f, 0.1560872f, -0.2072471f, 0.1738948f, -0.8860999f, 1.3071836f, 0.1891059f, -0.4356140f, -0.3182645f, 0.5667366f, 0.5289003f, 1.6372337f, 0.3946669f, -1.5183624f, -0.2481045f, -0.7298701f, 0.9594012f, -1.5127006f, 0.1264217f, 0.0215588f, -0.1987478f, -0.3277915f, -0.7156562f, -0.2578102f, -1.7123489f, -0.1008748f, 0.0569518f, 0.0049535f },
{ -0.3042282f, 0.0232946f, 2.0104480f, -0.3865024f, 1.3787764f, -0.3753675f, 0.1908224f, -0.1167829f, 0.0042762f, -1.7900950f, -0.2757171f, -0.3586128f, -1.1779951f, -0.6376933f, -0.6392210f, -0.9124894f, -1.8445708f, 0.0420610f, -1.5915239f, 0.7314193f, 1.5605873f, -0.9093362f, -1.9221616f, -1.2479260f, -0.2160863f, -0.5572920f, 0.7914685f, -0.0676887f, 0.1369530f, -0.5735607f, -0.3616275f, 0.4717905f },
{ -0.3884927f, -0.3827721f, 4.2059007f, 0.0417355f, -1.8130256f, 0.3497045f, -0.3690857f, -0.3374461f, 0.9133801f, -0.7799231f, -0.2967369f, 0.5494383f, -0.2947608f, 0.3639060f, 0.2947011f, -1.2280273f, 4.9731913f, 3.9367292f, -3.5818884f, -1.5547795f, 3.6023145f, -1.2672731f, 3.5250516f, -1.3641177f, -0.0680436f, 0.5973340f, 0.3573038f, -0.1228093f, 2.0982230f, 0.1325432f, 2.2433453f, 0.5102981f },
{ 2.1210942f, 3.0023379f, -0.2135417f, -1.4327673f, 0.0837585f, 1.9524397f, 3.4447448f, -7.6500449f, -4.9515338f, -2.1422858f, 3.8231187f, -1.2091881f, -0.4350876f, 1.0151153f, -0.1394668f, -0.4898042f, 0.1861935f, 4.2400260f, -0.0860829f, 0.4857388f, 0.0660894f, -0.1937366f, 0.1719575f, -0.0138555f, 0.1045357f, -3.4182837f, 0.1417584f, -0.2394369f, 0.0821580f, 2.3341763f, 2.5032940f, -3.2033114f },
{ 0.6403791f, -1.1154534f, -0.0039483f, -0.3491406f, 1.3403441f, -0.4646091f, -0.6463357f, -0.6201792f, -0.3558179f, 1.4096100f, -0.9122927f, 0.3310368f, -0.2802109f, 0.5665900f, 0.8236545f, 1.5997672f, 0.5568453f, -0.1585884f, 1.0783340f, -1.5139890f, 1.5183991f, -1.6156223f, 0.5754969f, -0.3932884f, -0.2175337f, -0.7713268f, -2.1102021f, -1.5627869f, -1.7283944f, 0.6386560f, 0.8073890f, 0.5908262f },
{ -0.2484851f, 1.4136857f, 0.1969113f, -1.3582332f, 2.1267292f, 0.4282168f, -0.1942680f, 0.5782912f, -0.4596170f, -1.5821829f, -0.4778841f, -1.0899506f, -1.8430485f, -1.6812598f, -1.3771226f, -1.1374100f, -2.8599501f, 0.0876575f, -1.7019063f, 1.9806893f, 2.0517724f, -0.3242386f, -1.2706170f, -2.0872037f, -0.1955970f, -0.5500821f, 0.8366016f, -0.4906834f, -0.9337721f, -0.6755967f, -1.2897598f, 0.9290781f },
{ 0.3879277f, -0.3776630f, -0.2158556f, 0.8471461f, -1.2087675f, -0.0386564f, 0.1742034f, -0.2062786f, 0.1935374f, -3.7324150f, 0.4728715f, 0.2936604f, -0.1263769f, 0.2959415f, -0.9685307f, -1.9420671f, -2.5406606f, -0.0006522f, 6.0305357f, -1.2743260f, 1.7394023f, 0.6520200f, -1.8065238f, 0.4255717f, 0.0935215f, 0.5152009f, -0.0923279f, -0.7815968f, 1.5629042f, 0.1090232f, 0.9525071f, 0.0085468f },
{ 2.1078670f, 0.2011989f, 0.4791248f, -2.2407861f, -0.0533794f, 7.3256803f, 4.4818139f, -10.4246368f, -0.3463123f, 0.0208269f, 3.0960197f, -2.3957529f, 0.8227418f, -0.3797536f, 0.7424488f, -0.2192416f, -0.1235166f, 0.2843133f, -0.1730387f, 0.2794865f, -0.1135175f, 0.3469034f, -0.3543288f, -0.0745328f, 0.0827154f, -3.7606289f, -0.0903428f, 0.8642429f, -0.0532694f, 2.0599697f, 2.6978953f, -3.7567551f },
{ 0.5555986f, -1.3525648f, -0.2527991f, 0.0365342f, 1.6809474f, -0.0750316f, -0.6066645f, -0.8237920f, -0.9855240f, 1.2340670f, -0.5892109f, -0.1728081f, -0.5201743f, 0.2248407f, 0.4730020f, 1.4647373f, 0.2254935f, -0.1973527f, 1.6854839f, -1.2417482f, 0.7745957f, -0.5540317f, 0.6686455f, -0.7386205f, 0.1031812f, -0.9919826f, -1.5860684f, -0.6133716f, -1.1920472f, 0.1999841f, 0.1828263f, 0.5559074f },
{ -0.5936612f, 0.6572905f, 0.3335553f, -1.1483213f, 1.7617270f, -0.4858250f, -0.3297061f, 0.3432537f, -0.3865299f, -0.0727220f, -0.4896141f, -0.5930631f, -1.1633970f, -1.3151261f, -1.6507493f, -0.3215421f, -0.6304841f, 0.3781826f, -1.2426788f, 1.5018089f, 0.9276689f, 0.6735727f, -0.2522521f, -1.7705956f, -0.1768811f, -0.6831006f, 0.6917333f, -0.0800692f, -0.5483621f, -0.6738778f, -0.8484834f, -0.9272629f },
{ 0.3741404f, 0.4091075f, 0.7396253f, 0.9551461f, -0.0806448f, -0.0636501f, 0.1260778f, -0.0610709f, 0.3699134f, -1.2399018f, 0.1348910f, 0.0709585f, -0.0070939f, 0.2173014f, -0.3261831f, -1.2713912f, -0.8062305f, 0.3199455f, 2.7810993f, 0.2429579f, -1.5622331f, 0.4809843f, -1.0342406f, -0.0987341f, -0.1420505f, -0.0106131f, -1.1594087f, 0.0030798f, 0.5189533f, -0.1254795f, 1.2414539f, 0.2586467f },
{ 1.0588698f, -0.9901302f, -0.0936792f, -1.6554042f, 0.0796757f, 5.5203848f, 3.3343105f, -5.2567620f, 1.5675770f, 0.1459660f, 0.7946323f, -0.5751905f, 0.7832255f, -0.4149521f, -0.0224039f, 0.0777481f, -0.0942120f, -1.1539682f, -0.3477050f, -0.3466030f, 0.2503820f, 0.0227402f, -0.0848585f, -0.0293413f, 0.0781158f, -1.6645523f, 0.2973989f, 0.0453513f, -0.0676697f, -0.1430221f, 1.0819738f, -0.4127274f },
{ 0.4689117f, -0.4295943f, -0.0802532f, -0.0316205f, 0.9968086f, -0.3781197f, -0.0969815f, -0.2879381f, -0.7534460f, 1.1635604f, 0.0362917f, -0.2229120f, -0.5978911f, 0.2062472f, 0.3622156f, 0.9345945f, 0.2971464f, -0.8407773f, 0.8600441f, -0.6672052f, 0.7032954f, -0.5905355f, -0.0709674f, -0.1649352f, 0.1102801f, -0.5007332f, -0.6273374f, -0.4205131f, -0.4318623f, -0.0704513f, -0.3874020f, 0.7853884f },
{ -0.2069733f, -0.5913352f, 0.2627881f, -0.2353840f, 0.9837605f, -0.4128959f, -0.1545175f, 0.0256241f, 0.0571333f, -0.1062671f, -0.0180195f, -0.4619970f, -0.3614946f, -0.5597774f, -0.6131784f, -0.1103312f, -0.7569420f, 0.4192729f, 0.0771654f, 0.7821886f, 1.0164670f, 0.5302013f, 0.0132619f, -0.6435809f, 0.0696086f, -0.1384031f, 0.6235576f, 0.1218861f, 0.2808182f, -0.3877464f, -0.6690767f, -1.5426745f },
{ -0.2883984f, -2.0031452f, -1.0907811f, -0.0165636f, -1.4087557f, -10.3010187f, 1.4615844f, -0.6523124f, 5.8684478f, -3.7668526f, 0.9326724f, -4.4543085f, -0.5493824f, 2.8352149f, 1.5228306f, 1.8249373f, -5.1988530f, 1.4118072f, 2.1074786f, 1.5700563f, -0.4814855f, 1.3332375f, 3.2698052f, 2.1467195f, -0.0209931f, 3.4945946f, 2.9663086f, 10.9016886f, -0.3360244f, -0.8542510f, 2.9305911f, -1.0035005f },
{ -3.3797305f, -8.1795883f, 6.5326791f, -1.4774997f, 0.3038796f, -6.5582743f, -2.9549346f, -4.4031649f, -9.4658012f, -2.3063393f, -7.8745947f, -1.2322471f, -4.1890306f, 2.9833481f, 4.0063286f, -4.0200443f, 0.9236347f, -9.3329878f, -3.9146535f, 0.3250834f, -0.9510905f, -0.2648956f, -3.2673197f, 3.9349196f, 0.0127148f, -1.0678608f, 4.1526070f, -16.6905251f, 4.0256128f, 5.4381485f, 4.4092841f, 18.2260246f },
{ -1.7139119f, -3.4033792f, 2.3251500f, -2.4966736f, 2.2553394f, -11.2264137f, -3.6220770f, -3.7742631f, -2.5443401f, -1.8769615f, -4.2434254f, -1.1534457f, -0.9877248f, 1.1705682f, 0.6824481f, -0.5246453f, 1.7208574f, 0.1078611f, -1.9698818f, 0.9940999f, -2.2953525f, -3.8070171f, 1.1767371f, 1.5295187f, 0.1219692f, -2.5433106f, 2.1680679f, -5.5363159f, 1.1367680f, -0.4194066f, -1.5617255f, 4.1814876f },
{ 0.0771548f, 0.3574201f, -0.5392236f, 0.3193136f, -0.2906288f, 0.0780220f, -0.1053634f, 0.1425464f, 0.0303692f, -0.1649808f, 0.1153588f, 0.4483235f, 0.4583166f, 0.3053601f, 0.4806958f, 0.0762203f, 0.3002321f, -0.0202460f, 0.2918626f, -0.0397808f, -0.0693583f, -0.3000746f, 0.2814165f, 0.5333219f, -0.1504561f, 0.3472666f, 0.4953483f, -0.4719536f, 0.5646909f, 0.4543155f, 0.4429739f, -0.2167639f },
{ 0.1555969f, 0.0258230f, -0.3435023f, 0.2954119f, -0.4010214f, -0.3736863f, 0.0765091f, 0.0575271f, 0.3874319f, 0.0023909f, 0.1567693f, 0.4566446f, 0.4879149f, 0.3644488f, 0.0744705f, 0.0790485f, 0.2091452f, 0.1589116f, 0.1490078f, -0.1773031f, -0.4187040f, 0.2094679f, 0.3002634f, 0.4968003f, -0.0992779f, 0.2218677f, 0.1870894f, 0.2127514f, 0.4917266f, 0.3937124f, 0.0892234f, -0.3784647f },
{ 0.2527806f, 0.2358221f, -0.3533201f, 0.3691055f, -0.3642993f, 0.1559776f, 0.0846522f, 0.1205411f, 0.0856900f, -0.0230403f, 0.1740634f, 0.4592364f, 0.5130056f, 0.2707584f, 0.3357856f, 0.0894736f, 0.2464842f, -0.2029340f, 0.2014881f, -0.0842279f, -0.4130556f, 0.0583656f, 0.2914308f, 0.4906362f, 0.0808862f, 0.3291609f, 0.2679825f, 0.1235342f, 0.5304313f, 0.3183548f, 0.4374709f, -0.0066861f },
{ -0.1244824f, 0.0171933f, -0.0485222f, -0.1294759f, 0.0816824f, 0.0173426f, -0.0156838f, -0.1200834f, -0.0523762f, -0.0762444f, -0.1632029f, 0.0341436f, 0.0017537f, -0.1257233f, 0.1604063f, -0.0482790f, 0.0583573f, 0.1076590f, -0.1095946f, 0.1184740f, -0.0235411f, 0.0609071f, -0.1053720f, -0.0569322f, -0.0963133f, -0.0305394f, 0.0308080f, -0.9469619f, -0.0636739f, -0.0212858f, -0.0943874f, 0.0116652f },
{ -0.0663028f, 0.0107325f, -0.0552547f, -0.0770151f, 0.0468884f, -0.1317825f, -0.0692312f, -0.1352611f, -0.0826484f, -0.0602317f, -0.1333986f, -0.0032527f, 0.0057560f, -0.0350074f, 0.0291354f, -0.0688202f, -0.0773128f, -0.0547705f, -0.1864448f, 0.0150193f, -0.0311245f, 0.0397494f, -0.1378841f, -0.1048509f, -0.1080991f, -0.0590269f, 0.0518968f, 0.4575224f, -0.0286039f, -0.0668925f, -0.1193831f, -0.0473552f },
{ -0.0571830f, 0.0213337f, -0.0469278f, -0.0859152f, 0.0495525f, 0.1219504f, -0.0476386f, -0.1363327f, -0.1140084f, -0.0459351f, -0.1019199f, 0.0354693f, 0.0039251f, -0.1088041f, -0.0226405f, -0.0056370f, -0.0684080f, -0.0304662f, -0.1291279f, 0.0113609f, -0.0670977f, 0.0343085f, -0.0714296f, -0.1018468f, 0.1133390f, 0.0124700f, 0.0472387f, 0.1236886f, -0.0476591f, -0.1082450f, 0.1229615f, 0.1887847f },
};

HOST_DEVICE_CONSTANT float bias_fc2[32] = {
0.4146218f, -0.2110466f, -0.1949720f, -0.1622337f, -0.0637152f, 0.3837661f, -0.1347347f, 0.5124961f, 0.1445310f, 0.5638406f, -0.1923500f, -0.1146682f, 0.3302196f, 0.2950204f, 0.2535739f, 0.3967270f, 0.1745425f, -0.1661734f, -0.7653402f, 0.1455827f, 0.0546020f, -1.0600268f, 0.5376885f, -0.0131289f, -0.0547669f, -0.1424704f, 0.0326772f, -0.4042316f, 0.7387921f, 0.0381098f, 0.4488554f, 0.1515928f };

HOST_DEVICE_CONSTANT const float wgtT_fc2[32][32] = {
{ -0.0743364f, 0.0973152f, 0.0669642f, -1.7007470f, 0.0878760f, -0.2685151f, 0.4313985f, 0.0305310f, -0.0376701f, -0.0621895f, -0.0002021f, 0.0140856f, -0.0251286f, -0.7564318f, 0.2315464f, 0.1061576f, -0.0701804f, -0.1256883f, 0.4298237f, -0.2336645f, -0.5064462f, -0.4424885f, 0.2018048f, 0.0256859f, -0.1382757f, -0.1791627f, 0.0944640f, -0.4496408f, 0.3564593f, 0.0790521f, -0.2027508f, 0.0155263f },
{ 0.3510130f, 0.1919733f, -0.0963137f, -2.5216835f, 0.0345653f, 0.2496195f, -0.7308981f, 0.1942191f, 0.1372990f, 0.3946628f, -0.1140056f, -0.0994611f, 0.2686043f, -0.0272541f, -0.0912381f, 0.5000062f, 0.0283930f, -0.2028357f, -0.3691475f, 0.0305861f, 0.5074695f, -0.2240615f, 0.2474257f, 0.1098480f, -0.1226604f, 0.1605287f, 0.4933653f, 0.1957853f, -0.0603084f, -0.0517685f, -0.4288309f, -0.1052016f },
{ -0.4916976f, 0.1767047f, -0.1841494f, 0.8507523f, -0.1978916f, 0.1371817f, -0.0808934f, -0.4695305f, -0.5858120f, -0.6001084f, 0.2137464f, -0.0795789f, -0.2599916f, -0.1507162f, -0.1275726f, -0.6272172f, 1.0610187f, -0.1902791f, 0.5081797f, -2.0887687f, -0.4281401f, 0.4735209f, -0.2178273f, 0.1457372f, -0.2344774f, -0.0131098f, -0.7264859f, 0.2133196f, -0.5571758f, -0.1940595f, 0.6404992f, -0.0972325f },
{ 0.2456191f, -0.2254234f, -0.7020671f, 0.4349501f, 0.1504329f, -0.5059052f, 0.2928655f, -0.0382718f, -0.4370493f, -0.4548788f, -0.1162556f, 0.0140912f, 0.2488118f, 0.5426553f, -1.1389023f, -0.2857566f, 0.1370284f, -0.1318804f, -0.8510911f, -0.6189857f, 0.1562711f, 0.1180758f, 0.2015442f, 0.2552532f, -0.1048587f, -0.1083801f, -1.2007864f, -0.4975525f, 0.3655093f, -0.1759725f, 0.0875907f, -0.1092815f },
{ 0.0092800f, -1.1702627f, -0.1340716f, -0.4857111f, -0.5369491f, 0.3286586f, -0.2747037f, -0.4212289f, 0.0724691f, 0.6194371f, -0.0804178f, -0.2009337f, 0.1519460f, -0.1160627f, 0.0892121f, -0.8170738f, 0.4068522f, -0.1472233f, 0.4623719f, 0.4202534f, 0.2837067f, -0.6394150f, 0.6965711f, -1.3492644f, -0.2469159f, -0.0724711f, 0.2664690f, -2.1095378f, -0.2154370f, -0.8534596f, -0.4591441f, -0.1085848f },
{ -4.5162182f, 0.9257500f, -0.5107494f, 0.7369807f, -1.0847183f, -0.0478967f, -0.1321359f, -0.0041277f, 0.0324497f, 0.9268738f, 0.0233135f, -0.0275302f, -2.5933330f, -0.5443912f, 0.2229714f, 0.6337813f, 0.0120301f, 0.0877372f, -0.4445918f, 1.2294465f, -2.3574302f, 0.3313728f, 0.9558758f, -0.2159218f, -0.0761711f, -0.1575765f, 0.6346869f, 0.1737425f, -0.0976680f, 0.0080661f, 0.0254892f, -0.0486451f },
{ -2.5840688f, 0.9209793f, 0.5633256f, -0.1927442f, -1.7598897f, -0.3131686f, -0.2302832f, -0.0234913f, 0.1728505f, -0.0062445f, -0.1605478f, -0.0039159f, -2.4881678f, -1.4602855f, 0.6340719f, -0.3696427f, -0.0405491f, -0.0266802f, -0.1083229f, -1.5129874f, -0.8282434f, 0.0752747f, 0.5381691f, -0.0033925f, 0.0373042f, 0.1771160f, 0.5091565f, -0.0185461f, -0.2252148f, 0.0945886f, 0.1168630f, 0.0497770f },
{ 0.0394915f, -0.0107362f, -2.4309340f, -0.3600100f, 0.1519287f, -0.2000360f, -0.3881307f, -0.0277079f, -5.9234819f, -3.5422904f, -0.0278646f, -0.1175496f, 0.2533394f, 0.4051496f, -2.4817250f, -1.5051055f, -0.1905873f, 0.1108551f, 0.6172940f, 0.3495246f, 0.0017101f, -1.8819723f, 0.7523835f, 0.9473027f, 0.0386313f, -0.0510887f, -7.3825831f, 0.2129163f, -0.0556940f, 0.0114164f, -0.0087729f, 0.0211215f },
{ 0.8838761f, 0.1901041f, 0.4299982f, 0.4434858f, 0.3811533f, 0.5743587f, -1.7223756f, 0.0512640f, -1.2893490f, -0.1079409f, -0.1535112f, 0.0183635f, 0.0458640f, 0.7436097f, -0.2063282f, 0.3348770f, 0.0484590f, -0.0558863f, 0.1434424f, -2.1766295f, 0.1902665f, 0.0564902f, 0.1717813f, 0.4854354f, 0.0184698f, -0.0928167f, -0.1657896f, -0.0425729f, 0.1742951f, 0.0645352f, -0.0579255f, 0.0794523f },
{ 0.0478328f, 0.8154634f, 0.0436685f, -0.2508925f, 0.2650070f, -0.6006699f, 0.5003467f, 0.3880501f, 0.0133743f, 0.0077872f, -0.0026995f, 0.0113939f, 0.3932360f, 0.2113911f, -0.4026982f, 1.2212291f, -0.2398803f, -0.0323242f, -0.7480524f, 0.0393426f, -0.0044315f, 1.4533601f, 0.2023045f, 0.7888588f, 0.0480821f, -0.1379422f, 0.0825386f, 0.2472351f, 0.6628222f, 0.4219276f, -0.1120842f, -0.0651862f },
{ 0.1212599f, 0.3651850f, -0.0107788f, -0.8534265f, 0.4374492f, 0.3144433f, 0.0607830f, -0.0984500f, 0.5431845f, 0.1894700f, 0.0186774f, 0.1241087f, -0.1775411f, -0.9417604f, 0.3573893f, 0.0007699f, -0.2078529f, -0.1077335f, -0.0722070f, 0.0669957f, -0.0973149f, -0.7537831f, 0.6855454f, 0.0844028f, 0.0733383f, 0.0897220f, 0.5344946f, 0.0606704f, 0.0633480f, -0.1582170f, -0.3516344f, -0.1333569f },
{ 0.3488453f, 0.1268185f, -0.7240213f, 0.4103745f, 0.4205314f, 0.3000045f, -0.0575247f, 0.1715784f, -0.3085786f, 0.4971216f, -0.0338372f, -0.0615048f, -0.4854989f, 0.1727661f, -0.7313887f, 0.4395412f, 0.6176149f, -0.0817976f, -0.5113866f, -0.0591491f, 0.1962312f, 0.2822447f, 0.4625314f, 0.1935440f, -0.1935226f, -0.0606488f, -0.4188156f, 0.0965206f, 0.0161100f, -0.7768479f, 0.1556062f, -0.1282097f },
{ -1.0956537f, 0.5052330f, -0.2124698f, -0.1490085f, -0.5400671f, -0.1339893f, -0.2390667f, 0.3530575f, 0.6137909f, -0.1576528f, -0.1499460f, -0.1115706f, -0.4455818f, -0.5571623f, 0.0551486f, -0.1517895f, 0.6403342f, -0.1836656f, -1.3227433f, -0.4695193f, -0.6602336f, -1.6959645f, 0.3377550f, 0.0617857f, -0.1629664f, -0.0820234f, 0.3427304f, 0.9084684f, 0.2474493f, -0.3127479f, 0.3871498f, -0.0496547f },
{ 0.1816051f, -0.4283573f, 0.4746372f, 0.2669058f, 0.1071537f, 0.8245590f, -0.0060495f, 0.5262749f, 0.3233151f, -0.2795133f, -0.2519684f, 0.1249019f, -0.1950222f, 0.7823772f, 0.6359753f, -0.4677400f, 0.1733247f, -0.1694475f, 0.5721692f, 0.6883191f, 0.3620548f, -0.1505774f, 0.1297671f, -0.4433556f, -0.0390254f, -0.0850875f, 0.3169108f, -0.2919585f, 0.6324609f, -0.0035655f, 0.2635214f, 0.1089135f },
{ 0.0576436f, -0.5880515f, 0.2675080f, 0.6141594f, 0.2280183f, -0.4653224f, 0.0676768f, 0.8710791f, -0.0122050f, 0.0814531f, 0.0281853f, -0.0209716f, 0.3522026f, 0.5507423f, 0.3181925f, 0.1824276f, 0.2809249f, -0.0718911f, 0.2654370f, 0.6823520f, 0.3256190f, 1.3390191f, 0.3057932f, -0.5479860f, 0.1044489f, -0.1026786f, 0.3505660f, -0.2878346f, 0.8954869f, -0.6944070f, 0.2361626f, -0.1502996f },
{ -0.0232069f, -0.5259271f, -0.1210250f, 0.0906064f, -0.3005926f, 0.1844040f, -0.4310658f, 0.5834174f, -0.2019310f, 0.0434604f, 0.0546985f, -0.0906629f, -0.1397920f, 0.0025663f, -0.1291741f, 0.2677881f, -0.9142593f, -0.1526348f, -0.0184874f, -0.8818893f, -0.0883215f, -0.7431759f, 0.8423126f, -0.6736180f, 0.0099535f, -0.0243091f, 0.0572092f, -0.0386586f, 0.6478049f, 1.7318423f, -0.3935912f, 0.0162965f },
{ 0.0161286f, 0.5861493f, 0.4754981f, 0.0807121f, 0.3283546f, -0.3140724f, 0.2275252f, 0.4342370f, 0.1442320f, 0.0782129f, -0.2569868f, -0.1165140f, -0.3016531f, -0.2387519f, 0.1167764f, 0.0093588f, -0.5588461f, -0.0294483f, 1.1238747f, -0.4686710f, 0.8984576f, -0.1481817f, 0.5076246f, 0.6592202f, -0.0152045f, 0.1314248f, -0.1421358f, 0.2189182f, 0.6056288f, 0.7725488f, 0.6716520f, 0.0080444f },
{ -0.2981399f, 0.3354696f, 0.0099892f, 0.4450132f, -0.1018941f, 0.2713654f, -0.4092603f, 0.0878679f, 0.0637600f, -0.1394560f, 0.0693543f, 0.0414345f, -0.2621202f, 0.0967560f, 0.2544506f, -0.1412575f, -0.0259515f, -0.0908451f, -0.4424073f, -1.8136536f, -0.5977066f, -2.1571660f, -0.0455063f, -0.0428700f, -0.1289589f, -0.1326123f, 0.2440641f, 0.0837030f, 0.1604489f, -0.1393980f, 0.0707279f, -0.0489853f },
{ 0.0374173f, 0.5302709f, 0.1884317f, 0.3583639f, 0.0156639f, -0.4684952f, -0.5778935f, 0.0860939f, -0.2116078f, 0.4455094f, -0.1414703f, -0.1686012f, 0.3233954f, -0.3371582f, -0.1253361f, -0.2599193f, 1.2927713f, 0.0223225f, -0.7562777f, -1.1664901f, 0.0366316f, -0.7186353f, 0.0279030f, 0.2649464f, -0.1014559f, -0.0280469f, 0.1145702f, -0.8564209f, 0.1723532f, -1.8184624f, 0.5675278f, 0.0765682f },
{ -0.2268605f, 1.0532836f, -0.0404645f, 0.1096179f, 0.6193533f, -0.7696254f, 0.9891407f, -1.0933142f, 0.7760694f, 0.6667829f, -0.0539930f, 0.0007276f, 0.0572226f, -0.5448748f, 0.1013283f, -0.1262610f, -1.3110696f, -0.0328228f, -1.2844926f, -0.8053623f, 0.0960345f, 1.0295181f, -1.0889735f, 1.0511428f, -0.1836424f, -0.1420458f, 0.2355545f, 0.9435766f, -0.7218875f, 1.3511704f, -1.2637275f, -0.0405205f },
{ -0.5192454f, -0.1918695f, -0.3165950f, -0.7285663f, -0.1646093f, -0.1981781f, -0.1549940f, -0.4786741f, -0.1487315f, 0.1113852f, 0.1387410f, 0.0418468f, -0.3044026f, -0.0397310f, -0.2110987f, -0.1752456f, -0.8114751f, -0.2173340f, 0.5914446f, -0.4713002f, -0.0454876f, 0.0771089f, 0.8233025f, -0.1216764f, 0.0657377f, -0.1341325f, -0.1922139f, -0.9549683f, -0.1690784f, -0.7271446f, -0.1632920f, -0.0523322f },
{ 0.6837482f, -0.1627721f, 0.5586568f, 0.1608001f, 0.1967339f, 0.4584599f, -0.4342324f, -0.0976330f, 0.3804481f, -0.0085864f, 0.0971400f, -0.1855596f, 0.1739578f, -0.2942260f, -0.2621712f, 0.4050399f, -0.0454990f, -0.3314188f, 0.0564893f, -0.4151965f, 0.3177933f, -0.3769078f, -0.3923932f, 0.1287511f, -0.0873282f, 0.1079631f, 0.1916943f, -0.5419047f, -0.0297369f, -0.6525226f, -0.0369666f, -0.1069721f },
{ 0.2019611f, -0.2302741f, -0.0758491f, -0.6213371f, -0.4604979f, 0.6292951f, 0.1462398f, 0.5868801f, 0.1994634f, 0.1241557f, -0.1844965f, -0.1613339f, 0.1606095f, 0.0770909f, 0.1494905f, -0.1226631f, -0.9075662f, -0.2619836f, 0.1759132f, -0.0054385f, 0.1561180f, 0.1422756f, 0.8351672f, 0.2776556f, -0.2224565f, -0.0493299f, 0.1339950f, -0.2308010f, 0.3405207f, -1.6966729f, -0.2053231f, -0.0582850f },
{ 0.4520801f, 0.2099860f, 0.1502100f, 0.8904653f, 0.1897811f, 0.2696316f, -0.3780410f, 0.7549417f, 0.0869127f, -0.1005310f, 0.0242292f, -0.1728218f, -0.2753585f, 0.4976691f, 0.3116312f, 0.0067397f, 0.7672936f, -0.1393358f, -0.0156535f, 0.1287846f, 0.3390375f, -0.2025858f, -0.2459368f, 0.3589185f, -0.0161938f, 0.1554553f, 0.2892423f, 2.5466313f, 0.5275534f, -0.4471050f, 0.5485377f, 0.0218077f },
{ -0.0792064f, 0.0832396f, -0.1236021f, -0.0273305f, 0.0120356f, 0.0690640f, 0.1245844f, -0.1041330f, -0.0746389f, -0.0573418f, 0.0923335f, 0.1485820f, -0.0895923f, 0.0061434f, -0.1163915f, -0.1469516f, -0.0008313f, 0.0533165f, 0.0777957f, 0.1034368f, 0.1262591f, -0.1395210f, 0.0512124f, -0.0315062f, 0.0128284f, -0.0658564f, 0.0965157f, -0.1089833f, 0.0906079f, 0.0517636f, -0.1809804f, 0.0308907f },
{ 0.0245432f, -0.2098107f, 0.3085212f, 0.6424389f, 0.3117473f, 0.2996555f, 0.0351201f, 0.0529371f, -0.2762130f, -1.0839115f, -0.0643795f, 0.1043072f, -0.5100225f, 0.5326096f, -1.2968307f, 0.0621338f, -0.1785477f, 0.0332464f, 0.5028207f, 0.3026517f, 0.2584166f, 1.0287555f, 0.3328653f, 0.5447093f, -0.0873382f, -0.1225755f, -1.3689449f, -0.2272766f, -0.1745542f, 0.0946465f, 0.1867242f, -0.1203488f },
{ 0.5100073f, 1.0574870f, 0.3495831f, 0.3942738f, 0.1578868f, -0.0068708f, 1.3351971f, -0.0513927f, 0.5319881f, 0.0630587f, 0.1525861f, 0.0110664f, 1.0686202f, 0.5768327f, 0.8137794f, 0.0491181f, -0.2583696f, 0.1189915f, 0.0551258f, 0.6592525f, 0.1073286f, 0.5526877f, -0.9983166f, 0.9467102f, -0.0057934f, -0.1957063f, 0.3538236f, 1.2158248f, -0.2206039f, -1.0978765f, 0.4606811f, -0.0199476f },
{ 0.9918813f, -0.1090924f, 0.0873494f, 1.4886438f, -0.3529308f, 1.4292001f, -1.2285342f, 0.0281068f, 0.3442075f, 0.1565842f, -0.1287296f, 0.1208468f, -0.4900886f, -0.6200607f, -0.3941827f, 0.1966402f, 0.1783321f, -0.1433667f, -0.8391593f, -0.6788773f, -0.0136119f, -1.0960253f, -0.3219807f, -0.2134043f, 0.0125300f, 0.1356946f, 0.3331693f, 0.2385769f, -0.0076382f, -0.0070639f, -0.1197257f, -0.0799756f },
{ 0.2956762f, 0.6489484f, 0.1140960f, 0.1490907f, 0.6632827f, 0.0353592f, -0.3178549f, -0.2031443f, 0.6386751f, 0.9587489f, -0.1056036f, -0.0934499f, -0.0903680f, -0.0356465f, 0.1014291f, -0.1065896f, 1.0884049f, -0.0721777f, -0.9210038f, 0.5112162f, 0.2262804f, -0.1311785f, -0.2562996f, 0.3886235f, -0.1941949f, -0.1710840f, 0.7073243f, 0.0110002f, -0.3229307f, 0.2731920f, 0.0108877f, -0.1429396f },
{ -0.4257641f, 0.1136961f, 0.2102085f, -1.0473605f, -0.0250189f, 0.2976580f, 0.6014049f, 0.1901418f, 0.3193132f, -0.0267585f, -0.1353659f, -0.1716187f, -0.3357282f, -0.7462717f, 0.5092071f, 0.0610689f, 0.1305676f, -0.1736381f, 0.5015401f, 1.8653190f, -0.6652092f, 0.9942465f, 0.2019969f, -0.1970234f, -0.1511073f, 0.0786650f, 0.3029637f, -0.1492217f, 0.2080941f, -0.2202217f, 0.4093285f, -0.1325355f },
{ -0.0851695f, 0.3351533f, 0.2718686f, -0.1826089f, -0.1862825f, -0.0176096f, 0.6772560f, 0.0028525f, 0.4520046f, 0.3583812f, -0.0259852f, 0.0617472f, 0.0228529f, -0.3483626f, 0.4761592f, 0.4201155f, 0.2673631f, -0.1420956f, 1.9730487f, 0.2908607f, 0.1370865f, 1.1931317f, 0.1216904f, 0.1253464f, -0.0223236f, 0.0559023f, 0.4342139f, -0.4038602f, 0.1817304f, -0.0675143f, 0.2686009f, -0.0100825f },
{ -0.1710081f, 0.1794359f, 3.8348477f, -0.5257899f, -0.5916759f, -0.2008159f, 1.2575742f, 0.1410449f, -2.9625671f, -0.8720619f, -0.0339708f, 0.0165507f, 0.4896488f, 0.0822512f, 1.3023554f, -1.3228519f, 0.0331205f, 0.0904796f, 0.6369456f, 1.0367084f, 0.0953539f, -1.7460984f, -0.4855864f, -0.2710830f, -0.2403816f, 0.0627348f, -1.3486664f, -0.1132652f, 0.0507357f, -0.0037851f, -0.3948705f, -0.1111826f },
};

HOST_DEVICE_CONSTANT float bias_fc3[6] = {
-0.2439775f, -0.2498208f, -0.4426287f, -0.0211302f, 0.2031489f, -0.3349007f };

HOST_DEVICE_CONSTANT const float wgtT_fc3[32][6] = {
{ 0.4098390f, -0.0494609f, 0.4049631f, -0.2084806f, 0.1171166f, 0.0330848f },
{ 0.3291890f, -0.5393527f, 0.1323811f, 0.8108690f, 0.3893831f, -0.7892528f },
{ -0.0621986f, -0.1039374f, 0.3315700f, 0.1819391f, -0.1461796f, -0.0876159f },
{ 0.1330213f, 0.0380016f, 0.2777092f, 0.0010537f, -0.0222668f, 0.0918200f },
{ 0.0368482f, -0.2292779f, 0.0610783f, 0.3184311f, 0.0792027f, -0.3227473f },
{ -0.2730398f, 0.0411436f, -0.1634715f, 0.0572511f, -0.1378838f, 0.0231289f },
{ -0.3088290f, 0.0687255f, -0.0438855f, 0.3469572f, -0.1782694f, 0.0269317f },
{ -0.2979915f, 0.4170544f, -0.1766878f, -0.5986769f, -0.2971416f, 0.5915471f },
{ 0.5405884f, -0.3229313f, 0.4906393f, -0.1979776f, 0.2209858f, -0.2816834f },
{ -0.4005685f, -0.3603289f, -0.4273468f, -0.1340415f, -0.0914275f, -0.4656876f },
{ -0.0788320f, -0.0049172f, 0.1963828f, 0.1143424f, -0.1515576f, -0.0294158f },
{ -0.2107398f, -0.0571515f, 0.1231605f, 0.0850449f, 0.1474882f, 0.1169287f },
{ -0.1915500f, -0.1002570f, 0.2145894f, -0.1242628f, -0.2406812f, -0.0437700f },
{ 0.1881735f, 0.3662972f, 0.6560534f, 0.0020237f, -0.1917548f, 0.5579417f },
{ 0.1502891f, -0.0982637f, 0.7439556f, -0.5609878f, -0.2750288f, 0.1323957f },
{ -0.0610262f, -0.1527950f, -0.0394665f, -0.1223214f, -0.0258464f, -0.1621338f },
{ -0.2729602f, 0.5116109f, -0.1141186f, -0.6770679f, -0.3299919f, 0.7310051f },
{ 0.0045273f, -0.0066944f, 0.1180869f, 0.0752936f, -0.1004340f, -0.0494582f },
{ -0.0344800f, -0.1194466f, -0.1478451f, 0.0984811f, 0.0689722f, -0.1907338f },
{ 0.1894249f, 0.0499733f, 0.2989581f, -0.0073304f, 0.0040121f, 0.1120563f },
{ 0.0015581f, 0.2263790f, 0.1081258f, 0.4262179f, -0.0163448f, 0.2162437f },
{ -0.4889777f, -0.0931718f, 0.1493844f, 0.1157375f, -0.4111329f, -0.0690786f },
{ -0.2506889f, 0.5024139f, -0.1114313f, -0.7411288f, -0.3224744f, 0.7313598f },
{ 0.3204870f, -0.4673295f, 0.2244001f, 0.6249160f, 0.3056796f, -0.6505578f },
{ -0.1715396f, -0.0295273f, 0.1176390f, 0.1302058f, 0.0928305f, -0.0008272f },
{ 0.1884981f, 0.1365890f, -0.1160277f, 0.1658013f, -0.1158228f, -0.0988147f },
{ 0.1795828f, 0.7544178f, 0.2051431f, 0.5325869f, 0.0226693f, 0.8274273f },
{ 0.1979895f, -0.2625491f, 0.2320839f, 0.3817425f, 0.1465450f, -0.3517137f },
{ -0.3328292f, 0.5186002f, -0.1693098f, -0.6995458f, -0.3584710f, 0.7374591f },
{ -0.1250559f, 0.2546920f, -0.0340838f, -0.3249143f, -0.1651869f, 0.3649014f },
{ -0.2076701f, 0.4401889f, -0.0263948f, -0.5381010f, -0.2884603f, 0.6343825f },
{ 0.0970781f, 0.0410887f, 0.0560212f, -0.0703877f, 0.1655421f, -0.1399596f },
};

}  // namespace ALPAKA_ACCELERATOR_NAMESPACE::lst::dnn::t5embdnn

#endif

